{"learner":{"attributes":{"scikit_learn":"{\"_estimator_type\": \"classifier\"}"},"feature_names":[],"feature_types":[],"gradient_booster":{"model":{"gbtree_model_param":{"num_parallel_tree":"1","num_trees":"200"},"iteration_indptr":[0,1,2,3,4,5,6,7,8,9,10,11,12,13,14,15,16,17,18,19,20,21,22,23,24,25,26,27,28,29,30,31,32,33,34,35,36,37,38,39,40,41,42,43,44,45,46,47,48,49,50,51,52,53,54,55,56,57,58,59,60,61,62,63,64,65,66,67,68,69,70,71,72,73,74,75,76,77,78,79,80,81,82,83,84,85,86,87,88,89,90,91,92,93,94,95,96,97,98,99,100,101,102,103,104,105,106,107,108,109,110,111,112,113,114,115,116,117,118,119,120,121,122,123,124,125,126,127,128,129,130,131,132,133,134,135,136,137,138,139,140,141,142,143,144,145,146,147,148,149,150,151,152,153,154,155,156,157,158,159,160,161,162,163,164,165,166,167,168,169,170,171,172,173,174,175,176,177,178,179,180,181,182,183,184,185,186,187,188,189,190,191,192,193,194,195,196,197,198,199,200],"tree_info":[0,0,0,0,0,0,0,0,0,0,0,0,0,0,0,0,0,0,0,0,0,0,0,0,0,0,0,0,0,0,0,0,0,0,0,0,0,0,0,0,0,0,0,0,0,0,0,0,0,0,0,0,0,0,0,0,0,0,0,0,0,0,0,0,0,0,0,0,0,0,0,0,0,0,0,0,0,0,0,0,0,0,0,0,0,0,0,0,0,0,0,0,0,0,0,0,0,0,0,0,0,0,0,0,0,0,0,0,0,0,0,0,0,0,0,0,0,0,0,0,0,0,0,0,0,0,0,0,0,0,0,0,0,0,0,0,0,0,0,0,0,0,0,0,0,0,0,0,0,0,0,0,0,0,0,0,0,0,0,0,0,0,0,0,0,0,0,0,0,0,0,0,0,0,0,0,0,0,0,0,0,0,0,0,0,0,0,0,0,0,0,0,0,0,0,0,0,0,0,0],"trees":[{"base_weights":[9.1088505E-4,7.3491776E-1,-1.4492099E0,1.0175223E0,-8.3407275E-2,-1.7296963E0,-6.930693E-1,6.6482134E-2,2.6299212E-2,-9.822263E-3,9.354839E-2,-7.5718015E-2,-9.576969E-2,-6.214689E-3,-7.3437504E-2],"categories":[],"categories_nodes":[],"categories_segments":[],"categories_sizes":[],"default_left":[0,0,0,0,0,0,0,0,0,0,0,0,0,0,0],"id":0,"left_children":[1,3,5,7,9,11,13,-1,-1,-1,-1,-1,-1,-1,-1],"loss_changes":[1.7538634E3,2.5308594E2,1.16244385E2,1.24068665E2,6.261137E1,1.3224243E1,6.6657455E1,0E0,0E0,0E0,0E0,0E0,0E0,0E0,0E0],"parents":[2147483647,0,0,1,1,2,2,3,3,4,4,5,5,6,6],"right_children":[2,4,6,8,10,12,14,-1,-1,-1,-1,-1,-1,-1,-1],"split_conditions":[3.7290835E-1,2.4774E-1,9.6673256E-1,-6.087566E-1,-7.794755E-1,1.5775905E0,1.5775905E0,6.6482134E-2,2.6299212E-2,-9.822263E-3,9.354839E-2,-7.5718015E-2,-9.576969E-2,-6.214689E-3,-7.3437504E-2],"split_indices":[14,8,17,19,14,14,14,0,0,0,0,0,0,0,0],"split_type":[0,0,0,0,0,0,0,0,0,0,0,0,0,0,0],"sum_hessian":[1.64575E3,1.093E3,5.5275E2,8.1225E2,2.8075E2,4.0225E2,1.505E2,4.9575E2,3.165E2,2.6625E2,1.45E1,1.905E2,2.1175E2,8.75E1,6.3E1],"tree_param":{"num_deleted":"0","num_feature":"32","num_nodes":"15","size_leaf_vector":"1"}},{"base_weights":[1.2877021E-2,7.0528513E-1,-1.3636127E0,9.710255E-1,-6.569422E-2,-8.639876E-2,-9.719158E-1,6.470314E-2,2.3422733E-2,-8.484097E-3,8.925731E-2,-1.8922165E-2,-8.14617E-2],"categories":[],"categories_nodes":[],"categories_segments":[],"categories_sizes":[],"default_left":[0,0,0,0,0,0,0,0,0,0,0,0,0],"id":1,"left_children":[1,3,5,7,9,-1,11,-1,-1,-1,-1,-1,-1],"loss_changes":[1.5845367E3,2.2668292E2,7.773071E1,1.3294897E2,5.5051857E1,0E0,1.0487862E2,0E0,0E0,0E0,0E0,0E0,0E0],"parents":[2147483647,0,0,1,1,2,2,3,3,4,4,6,6],"right_children":[2,4,6,8,10,-1,12,-1,-1,-1,-1,-1,-1],"split_conditions":[3.7290835E-1,2.4774E-1,-7.792329E-1,-6.087566E-1,-7.794755E-1,-8.639876E-2,1.5775905E0,6.470314E-2,2.3422733E-2,-8.484097E-3,8.925731E-2,-1.8922165E-2,-8.14617E-2],"split_indices":[14,8,28,19,14,0,14,0,0,0,0,0,0],"split_type":[0,0,0,0,0,0,0,0,0,0,0,0,0],"sum_hessian":[1.660512E3,1.1051047E3,5.554072E2,8.216424E2,2.8346234E2,2.8597623E2,2.69431E2,4.9919818E2,3.2244424E2,2.6924347E2,1.4218869E1,1.4242003E2,1.2701096E2],"tree_param":{"num_deleted":"0","num_feature":"32","num_nodes":"13","size_leaf_vector":"1"}},{"base_weights":[-1.0553195E-2,6.517563E-1,-1.3432163E0,9.1471636E-1,-8.856729E-2,-1.6074389E0,-7.6518273E-1,6.010458E-2,2.2755114E-2,-9.452462E-3,8.56875E-2,-7.0791624E-2,-8.8718995E-2,-1.6033716E-2,-6.969703E-2],"categories":[],"categories_nodes":[],"categories_segments":[],"categories_sizes":[],"default_left":[0,0,0,0,0,0,0,0,0,0,0,0,0,0,0],"id":2,"left_children":[1,3,5,7,9,11,13,-1,-1,-1,-1,-1,-1,-1,-1],"loss_changes":[1.4540872E3,2.1432477E2,8.2302185E1,1.06724365E2,5.2726562E1,9.465088E0,4.803988E1,0E0,0E0,0E0,0E0,0E0,0E0,0E0,0E0],"parents":[2147483647,0,0,1,1,2,2,3,3,4,4,5,5,6,6],"right_children":[2,4,6,8,10,12,14,-1,-1,-1,-1,-1,-1,-1,-1],"split_conditions":[3.7290835E-1,2.4774E-1,4.552258E-1,-6.087566E-1,-7.794755E-1,1.5775905E0,1.9025643E0,6.010458E-2,2.2755114E-2,-9.452462E-3,8.56875E-2,-7.0791624E-2,-8.8718995E-2,-1.6033716E-2,-6.969703E-2],"split_indices":[14,8,29,19,14,14,31,0,0,0,0,0,0,0,0],"split_type":[0,0,0,0,0,0,0,0,0,0,0,0,0,0,0],"sum_hessian":[1.645446E3,1.0995168E3,5.459291E2,8.1116034E2,2.8835657E2,3.7344452E2,1.7248457E2,4.9810388E2,3.130565E2,2.7397702E2,1.4379532E1,1.7829161E2,1.9515291E2,1.0193227E2,7.055231E1],"tree_param":{"num_deleted":"0","num_feature":"32","num_nodes":"15","size_leaf_vector":"1"}},{"base_weights":[-8.117828E-3,6.1011773E-1,-1.242233E0,-8.8646926E-2,8.48433E-1,-1.5224919E0,-6.273707E-1,1.478156E-2,-3.9659876E-2,5.8371045E-2,2.1254754E-2,-6.7144126E-2,-8.414509E-2,-6.9158315E-3,-6.468294E-2],"categories":[],"categories_nodes":[],"categories_segments":[],"categories_sizes":[],"default_left":[0,0,0,0,0,0,0,0,0,0,0,0,0,0,0],"id":3,"left_children":[1,3,5,7,9,11,13,-1,-1,-1,-1,-1,-1,-1,-1],"loss_changes":[1.2539679E3,1.8242087E2,9.356909E1,7.587519E1,1.0977911E2,8.575623E0,5.633847E1,0E0,0E0,0E0,0E0,0E0,0E0,0E0,0E0],"parents":[2147483647,0,0,1,1,2,2,3,3,4,4,5,5,6,6],"right_children":[2,4,6,8,10,12,14,-1,-1,-1,-1,-1,-1,-1,-1],"split_conditions":[3.7290835E-1,-1.1892031E0,4.552258E-1,-6.087566E-1,-6.087566E-1,1.3423877E0,1.5775905E0,1.478156E-2,-3.9659876E-2,5.8371045E-2,2.1254754E-2,-6.7144126E-2,-8.414509E-2,-6.9158315E-3,-6.468294E-2],"split_indices":[14,15,29,19,19,14,14,0,0,0,0,0,0,0,0],"split_type":[0,0,0,0,0,0,0,0,0,0,0,0,0,0,0],"sum_hessian":[1.6415333E3,1.0939965E3,5.475368E2,2.7838153E2,8.156149E2,3.7509122E2,1.724456E2,1.8050845E2,9.787307E1,4.6413132E2,3.5148364E2,1.8137683E2,1.9371439E2,1.0014613E2,7.229947E1],"tree_param":{"num_deleted":"0","num_feature":"32","num_nodes":"15","size_leaf_vector":"1"}},{"base_weights":[-9.768499E-4,5.888586E-1,-1.1995317E0,8.2136625E-1,-7.905749E-2,-7.641166E-2,-8.506997E-1,1.1325E-2,5.1543254E-2,-8.67921E-3,8.1861906E-2,-1.6751258E-2,-7.18775E-2],"categories":[],"categories_nodes":[],"categories_segments":[],"categories_sizes":[],"default_left":[0,0,0,0,0,0,0,0,0,0,0,0,0],"id":4,"left_children":[1,3,5,7,9,-1,11,-1,-1,-1,-1,-1,-1],"loss_changes":[1.1601246E3,1.708583E2,6.0758545E1,1.0144623E2,4.6505436E1,0E0,7.9662674E1,0E0,0E0,0E0,0E0,0E0,0E0],"parents":[2147483647,0,0,1,1,2,2,3,3,4,4,6,6],"right_children":[2,4,6,8,10,-1,12,-1,-1,-1,-1,-1,-1],"split_conditions":[3.7290835E-1,2.4774E-1,-7.792329E-1,-1.1805099E0,-7.794755E-1,-7.641166E-2,1.5775905E0,1.1325E-2,5.1543254E-2,-8.67921E-3,8.1861906E-2,-1.6751258E-2,-7.18775E-2],"split_indices":[14,8,28,7,14,0,14,0,0,0,0,0,0],"split_type":[0,0,0,0,0,0,0,0,0,0,0,0,0],"sum_hessian":[1.6390283E3,1.0987954E3,5.402329E2,8.1489374E2,2.8390164E2,2.764013E2,2.638316E2,2.1278302E2,6.021107E2,2.6993365E2,1.3968006E1,1.4126804E2,1.2256358E2],"tree_param":{"num_deleted":"0","num_feature":"32","num_nodes":"13","size_leaf_vector":"1"}},{"base_weights":[1.379181E-2,5.5765796E-1,-1.0369049E0,-1.02934174E-1,7.7494824E-1,-1.3374232E0,-3.1696856E-1,1.0636847E-2,-3.3753034E-2,5.502161E-2,1.6649352E-2,-5.462716E-2,-7.788351E-2,8.4841624E-2,-2.554362E-2],"categories":[],"categories_nodes":[],"categories_segments":[],"categories_sizes":[],"default_left":[0,0,0,0,0,0,0,0,0,0,0,0,0,0,0],"id":5,"left_children":[1,3,5,7,9,11,13,-1,-1,-1,-1,-1,-1,-1,-1],"loss_changes":[9.3651013E2,1.5508481E2,1.20513855E2,4.8575893E1,1.1654193E2,1.9551086E1,6.565884E1,0E0,0E0,0E0,0E0,0E0,0E0,0E0,0E0],"parents":[2147483647,0,0,1,1,2,2,3,3,4,4,5,5,6,6],"right_children":[2,4,6,8,10,12,14,-1,-1,-1,-1,-1,-1,-1,-1],"split_conditions":[-7.3817395E-2,-1.1892031E0,9.5509946E-1,-6.087566E-1,-6.087566E-1,1.0555435E0,7.732034E-1,1.0636847E-2,-3.3753034E-2,5.502161E-2,1.6649352E-2,-5.462716E-2,-7.788351E-2,8.4841624E-2,-2.554362E-2],"split_indices":[31,15,17,19,19,31,31,0,0,0,0,0,0,0,0],"split_type":[0,0,0,0,0,0,0,0,0,0,0,0,0,0,0],"sum_hessian":[1.6368525E3,1.0788716E3,5.579809E2,2.6716867E2,8.1170294E2,3.9305347E2,1.6492744E2,1.7257724E2,9.459142E1,4.665907E2,3.4511224E2,1.8894115E2,2.0411232E2,1.3804897E1,1.5112254E2],"tree_param":{"num_deleted":"0","num_feature":"32","num_nodes":"15","size_leaf_vector":"1"}},{"base_weights":[8.670316E-3,5.3264755E-1,-1.0993425E0,-8.727904E-2,7.421416E-1,-1.2871099E0,-3.0096936E-1,2.1461E-2,-2.6204232E-2,3.2770864E-3,4.6626177E-2,-5.2795477E-2,-7.5384125E-2,1.2047971E-2,-4.8634138E-2],"categories":[],"categories_nodes":[],"categories_segments":[],"categories_sizes":[],"default_left":[0,0,0,0,0,0,0,0,0,0,0,0,0,0,0],"id":6,"left_children":[1,3,5,7,9,11,13,-1,-1,-1,-1,-1,-1,-1,-1],"loss_changes":[9.370235E2,1.423724E2,7.7293884E1,6.2867943E1,1.0544922E2,1.9786743E1,3.6626324E1,0E0,0E0,0E0,0E0,0E0,0E0,0E0,0E0],"parents":[2147483647,0,0,1,1,2,2,3,3,4,4,5,5,6,6],"right_children":[2,4,6,8,10,12,14,-1,-1,-1,-1,-1,-1,-1,-1],"split_conditions":[3.7290835E-1,-1.1892031E0,1.2459261E0,-1.0798744E0,-5.204464E-1,1.5775905E0,1.5775905E0,2.1461E-2,-2.6204232E-2,3.2770864E-3,4.6626177E-2,-5.2795477E-2,-7.5384125E-2,1.2047971E-2,-4.8634138E-2],"split_indices":[14,15,17,4,16,14,14,0,0,0,0,0,0,0,0],"split_type":[0,0,0,0,0,0,0,0,0,0,0,0,0,0,0],"sum_hessian":[1.6119534E3,1.0947618E3,5.171916E2,2.7666098E2,8.181008E2,4.1821942E2,9.897217E1,1.2677442E2,1.4988657E2,1.7994325E2,6.381576E2,2.0701596E2,2.1120346E2,5.5132957E1,4.3839207E1],"tree_param":{"num_deleted":"0","num_feature":"32","num_nodes":"15","size_leaf_vector":"1"}},{"base_weights":[-4.1426945E-2,4.686952E-1,-1.0794047E0,7.090344E-1,-1.8765417E-1,-1.2584939E0,-3.2958257E-1,5.159888E-3,4.6261378E-2,-1.3889204E-2,7.781323E-2,-5.215737E-2,-7.3473915E-2,1.1982372E-2,-5.2351683E-2],"categories":[],"categories_nodes":[],"categories_segments":[],"categories_sizes":[],"default_left":[0,0,0,0,0,0,0,0,0,0,0,0,0,0,0],"id":7,"left_children":[1,3,5,7,9,11,13,-1,-1,-1,-1,-1,-1,-1,-1],"loss_changes":[8.5334863E2,1.7059828E2,7.0896484E1,1.0353369E2,4.608203E1,1.7927002E1,4.2616585E1,0E0,0E0,0E0,0E0,0E0,0E0,0E0,0E0],"parents":[2147483647,0,0,1,1,2,2,3,3,4,4,5,5,6,6],"right_children":[2,4,6,8,10,12,14,-1,-1,-1,-1,-1,-1,-1,-1],"split_conditions":[3.7290835E-1,2.4774E-1,1.2459261E0,-1.1805099E0,-7.794755E-1,1.5775905E0,1.5775905E0,5.159888E-3,4.6261378E-2,-1.3889204E-2,7.781323E-2,-5.215737E-2,-7.3473915E-2,1.1982372E-2,-5.2351683E-2],"split_indices":[14,8,17,7,14,14,14,0,0,0,0,0,0,0,0],"split_type":[0,0,0,0,0,0,0,0,0,0,0,0,0,0,0],"sum_hessian":[1.6096707E3,1.0796278E3,5.300429E2,7.901967E2,2.894311E2,4.2730582E2,1.0273706E2,2.0820963E2,5.8198706E2,2.7600708E2,1.3423995E1,2.1440843E2,2.128974E2,5.7657345E1,4.5079712E1],"tree_param":{"num_deleted":"0","num_feature":"32","num_nodes":"15","size_leaf_vector":"1"}},{"base_weights":[8.749528E-3,4.9290955E-1,-1.0091435E0,-9.995958E-2,6.936336E-1,-1.268517E0,-3.8628367E-1,1.8349534E-2,-2.8004006E-2,4.2618685E-3,4.331502E-2,-5.4177888E-2,-7.16562E-2,-3.0337423E-4,-4.887459E-2],"categories":[],"categories_nodes":[],"categories_segments":[],"categories_sizes":[],"default_left":[0,0,0,0,0,0,0,0,0,0,0,0,0,0,0],"id":8,"left_children":[1,3,5,7,9,11,13,-1,-1,-1,-1,-1,-1,-1,-1],"loss_changes":[7.88884E2,1.2915924E2,8.286737E1,5.934251E1,8.507086E1,9.524475E0,3.4416252E1,0E0,0E0,0E0,0E0,0E0,0E0,0E0,0E0],"parents":[2147483647,0,0,1,1,2,2,3,3,4,4,5,5,6,6],"right_children":[2,4,6,8,10,12,14,-1,-1,-1,-1,-1,-1,-1,-1],"split_conditions":[3.7290835E-1,-1.1892031E0,9.118909E-1,-1.0389283E0,-5.204464E-1,1.5775905E0,1.5775905E0,1.8349534E-2,-2.8004006E-2,4.2618685E-3,4.331502E-2,-5.4177888E-2,-7.16562E-2,-3.0337423E-4,-4.887459E-2],"split_indices":[14,15,17,4,16,14,14,0,0,0,0,0,0,0,0],"split_type":[0,0,0,0,0,0,0,0,0,0,0,0,0,0,0],"sum_hessian":[1.5987354E3,1.083761E3,5.149743E2,2.7424335E2,8.0951764E2,3.6284183E2,1.521325E2,1.3621196E2,1.380314E2,1.7928731E2,6.3023035E2,1.7442888E2,1.8841295E2,9.3202576E1,5.8929928E1],"tree_param":{"num_deleted":"0","num_feature":"32","num_nodes":"15","size_leaf_vector":"1"}},{"base_weights":[-2.5414857E-3,4.618731E-1,-9.772314E-1,6.245079E-1,-3.642679E-1,-1.1709045E0,-2.366227E-1,-1.7133214E-3,4.3883033E-2,1.373715E-2,-3.9601643E-2,-4.8419666E-2,-6.8640165E-2,1.2490974E-2,-4.539176E-2],"categories":[],"categories_nodes":[],"categories_segments":[],"categories_sizes":[],"default_left":[0,0,0,0,0,0,0,0,0,0,0,0,0,0,0],"id":9,"left_children":[1,3,5,7,9,11,13,-1,-1,-1,-1,-1,-1,-1,-1],"loss_changes":[7.163173E2,1.4423206E2,7.297235E1,1.4943433E2,4.8578125E1,1.5211792E1,3.520037E1,0E0,0E0,0E0,0E0,0E0,0E0,0E0,0E0],"parents":[2147483647,0,0,1,1,2,2,3,3,4,4,5,5,6,6],"right_children":[2,4,6,8,10,12,14,-1,-1,-1,-1,-1,-1,-1,-1],"split_conditions":[3.7290835E-1,1.3392668E0,1.197732E0,-5.204464E-1,-9.74551E-1,1.5775905E0,1.5775905E0,-1.7133214E-3,4.3883033E-2,1.373715E-2,-3.9601643E-2,-4.8419666E-2,-6.8640165E-2,1.2490974E-2,-4.539176E-2],"split_indices":[14,16,17,16,18,14,14,0,0,0,0,0,0,0,0],"split_type":[0,0,0,0,0,0,0,0,0,0,0,0,0,0,0],"sum_hessian":[1.5804642E3,1.0707876E3,5.0967657E2,8.9486743E2,1.7592024E2,4.0356195E2,1.0611463E2,2.4865697E2,6.4621045E2,7.0685455E1,1.0523479E2,2.0436916E2,1.991928E2,6.1889664E1,4.4224968E1],"tree_param":{"num_deleted":"0","num_feature":"32","num_nodes":"15","size_leaf_vector":"1"}},{"base_weights":[1.3715971E-2,4.630672E-1,-9.60734E-1,6.807115E-1,-1.494905E-1,-1.2150581E0,-4.4341427E-1,9.084791E-3,4.3167617E-2,-1.8430797E-2,3.090983E-2,-5.231271E-2,-6.832969E-2,-1.7195874E-3,-5.1337123E-2],"categories":[],"categories_nodes":[],"categories_segments":[],"categories_sizes":[],"default_left":[0,0,0,0,0,0,0,0,0,0,0,0,0,0,0],"id":10,"left_children":[1,3,5,7,9,11,13,-1,-1,-1,-1,-1,-1,-1,-1],"loss_changes":[6.835767E2,1.425437E2,6.428424E1,7.170822E1,4.748351E1,7.004822E0,3.9085167E1,0E0,0E0,0E0,0E0,0E0,0E0,0E0,0E0],"parents":[2147483647,0,0,1,1,2,2,3,3,4,4,5,5,6,6],"right_children":[2,4,6,8,10,12,14,-1,-1,-1,-1,-1,-1,-1,-1],"split_conditions":[3.7290835E-1,2.4774E-1,4.552258E-1,-1.1805099E0,-5.822518E-1,1.5775905E0,1.5775905E0,9.084791E-3,4.3167617E-2,-1.8430797E-2,3.090983E-2,-5.231271E-2,-6.832969E-2,-1.7195874E-3,-5.1337123E-2],"split_indices":[14,8,29,7,31,14,14,0,0,0,0,0,0,0,0],"split_type":[0,0,0,0,0,0,0,0,0,0,0,0,0,0,0],"sum_hessian":[1.5591238E3,1.067424E3,4.9169983E2,7.875079E2,2.7991605E2,3.2873752E2,1.6296231E2,2.1153679E2,5.7597107E2,2.1816405E2,6.1752007E1,1.592474E2,1.694901E2,9.641574E1,6.654657E1],"tree_param":{"num_deleted":"0","num_feature":"32","num_nodes":"15","size_leaf_vector":"1"}},{"base_weights":[1.5403818E-2,4.4296607E-1,-6.172589E-1,8.3040947E-1,-2.3615116E-2,3.8749573E-1,-7.417471E-1,1.788542E-2,5.2311588E-2,-4.300375E-2,1.2712839E-2,-1.2697041E-3,4.144199E-2,-4.88278E-2,-4.197325E-3],"categories":[],"categories_nodes":[],"categories_segments":[],"categories_sizes":[],"default_left":[0,0,0,0,0,0,0,0,0,0,0,0,0,0,0],"id":11,"left_children":[1,3,5,7,9,11,13,-1,-1,-1,-1,-1,-1,-1,-1],"loss_changes":[4.1998553E2,1.6749948E2,7.860504E1,5.1266235E1,9.813574E1,1.2719087E1,8.602136E1,0E0,0E0,0E0,0E0,0E0,0E0,0E0,0E0],"parents":[2147483647,0,0,1,1,2,2,3,3,4,4,5,5,6,6],"right_children":[2,4,6,8,10,12,14,-1,-1,-1,-1,-1,-1,-1,-1],"split_conditions":[2.4265128E-1,-6.294676E-1,-1.2027125E0,-1.1805099E0,-1.1805099E0,-1.1892031E0,4.552258E-1,1.788542E-2,5.2311588E-2,-4.300375E-2,1.2712839E-2,-1.2697041E-3,4.144199E-2,-4.88278E-2,-4.197325E-3],"split_indices":[8,4,4,7,7,15,29,0,0,0,0,0,0,0,0],"split_type":[0,0,0,0,0,0,0,0,0,0,0,0,0,0,0],"sum_hessian":[1.5506006E3,9.25461E2,6.251396E2,5.051832E2,4.202778E2,6.868274E1,5.5645685E2,1.5918608E2,3.4599713E2,1.0427881E2,3.15999E2,3.59722E1,3.2710545E1,4.0971878E2,1.4673805E2],"tree_param":{"num_deleted":"0","num_feature":"32","num_nodes":"15","size_leaf_vector":"1"}},{"base_weights":[1.7222108E-2,4.4590935E-1,-9.0442336E-1,-1.136847E-1,6.3593674E-1,-1.1244457E0,-4.0781876E-1,1.48132285E-2,-2.8362432E-2,4.528476E-2,1.4622754E-2,-4.543757E-2,-6.635642E-2,-2.1094705E-3,-4.675449E-2],"categories":[],"categories_nodes":[],"categories_segments":[],"categories_sizes":[],"default_left":[0,0,0,0,0,0,0,0,0,0,0,0,0,0,0],"id":12,"left_children":[1,3,5,7,9,11,13,-1,-1,-1,-1,-1,-1,-1,-1],"loss_changes":[6.119128E2,1.1247751E2,5.326535E1,5.0149956E1,7.286426E1,1.3664917E1,2.9366121E1,0E0,0E0,0E0,0E0,0E0,0E0,0E0,0E0],"parents":[2147483647,0,0,1,1,2,2,3,3,4,4,5,5,6,6],"right_children":[2,4,6,8,10,12,14,-1,-1,-1,-1,-1,-1,-1,-1],"split_conditions":[3.7290835E-1,-1.1892031E0,9.118909E-1,-9.996293E-1,-6.087566E-1,1.5775905E0,1.5775905E0,1.48132285E-2,-2.8362432E-2,4.528476E-2,1.4622754E-2,-4.543757E-2,-6.635642E-2,-2.1094705E-3,-4.675449E-2],"split_indices":[14,15,17,4,19,14,14,0,0,0,0,0,0,0,0],"split_type":[0,0,0,0,0,0,0,0,0,0,0,0,0,0,0],"sum_hessian":[1.5467426E3,1.0560538E3,4.9068875E2,2.6780917E2,7.882446E2,3.3915897E2,1.5152979E2,1.4085007E2,1.2695912E2,4.4058658E2,3.4765805E2,1.6696207E2,1.7219688E2,9.011837E1,6.141141E1],"tree_param":{"num_deleted":"0","num_feature":"32","num_nodes":"15","size_leaf_vector":"1"}},{"base_weights":[-1.3230509E-3,4.0177888E-1,-8.85626E-1,6.146506E-1,-1.9537431E-1,-1.0890617E0,-4.976352E-1,4.829452E-3,4.039985E-2,-1.502613E-2,7.664286E-2,-4.48813E-2,-6.390219E-2,9.755778E-2,-2.8542796E-2],"categories":[],"categories_nodes":[],"categories_segments":[],"categories_sizes":[],"default_left":[0,0,0,0,0,0,0,0,0,0,0,0,0,0,0],"id":13,"left_children":[1,3,5,7,9,11,13,-1,-1,-1,-1,-1,-1,-1,-1],"loss_changes":[5.469569E2,1.3409628E2,3.7379456E1,7.777289E1,5.093096E1,1.0224884E1,3.1075138E1,0E0,0E0,0E0,0E0,0E0,0E0,0E0,0E0],"parents":[2147483647,0,0,1,1,2,2,3,3,4,4,5,5,6,6],"right_children":[2,4,6,8,10,12,14,-1,-1,-1,-1,-1,-1,-1,-1],"split_conditions":[3.7290835E-1,2.3943736E-1,4.552258E-1,-1.1805099E0,-7.794755E-1,1.3423877E0,1.2056382E0,4.829452E-3,4.039985E-2,-1.502613E-2,7.664286E-2,-4.48813E-2,-6.390219E-2,9.755778E-2,-2.8542796E-2],"split_indices":[14,11,29,7,14,14,29,0,0,0,0,0,0,0,0],"split_type":[0,0,0,0,0,0,0,0,0,0,0,0,0,0,0],"sum_hessian":[1.5323967E3,1.0529597E3,4.7943698E2,7.76224E2,2.7673575E2,3.133375E2,1.660995E2,2.1136966E2,5.648543E2,2.6164307E2,1.5092663E1,1.585147E2,1.548228E2,4.0776925E0,1.620218E2],"tree_param":{"num_deleted":"0","num_feature":"32","num_nodes":"15","size_leaf_vector":"1"}},{"base_weights":[-7.6278544E-4,3.7974432E-1,-8.542953E-1,6.643395E-1,-9.367543E-3,-1.0283645E0,-2.2026163E-1,1.4908052E-2,5.2149396E-2,-6.9628987E-3,7.935045E-2,-4.149642E-2,-6.1525583E-2,3.1646125E-3,-6.671712E-2],"categories":[],"categories_nodes":[],"categories_segments":[],"categories_sizes":[],"default_left":[0,0,0,0,0,0,0,0,0,0,0,0,0,0,0],"id":14,"left_children":[1,3,5,7,9,11,13,-1,-1,-1,-1,-1,-1,-1,-1],"loss_changes":[4.9845145E2,1.1755916E2,5.2002075E1,8.46998E1,9.3407814E1,1.3861694E1,3.2688328E1,0E0,0E0,0E0,0E0,0E0,0E0,0E0,0E0],"parents":[2147483647,0,0,1,1,2,2,3,3,4,4,5,5,6,6],"right_children":[2,4,6,8,10,12,14,-1,-1,-1,-1,-1,-1,-1,-1],"split_conditions":[3.7290835E-1,-6.087566E-1,1.2459261E0,-3.882032E-1,-7.794755E-1,1.5775905E0,1.622566E0,1.4908052E-2,5.2149396E-2,-6.9628987E-3,7.935045E-2,-4.149642E-2,-6.1525583E-2,3.1646125E-3,-6.671712E-2],"split_indices":[14,19,17,29,14,14,4,0,0,0,0,0,0,0,0],"split_type":[0,0,0,0,0,0,0,0,0,0,0,0,0,0,0],"sum_hessian":[1.5327595E3,1.0605282E3,4.7223126E2,6.12119E2,4.4840924E2,3.700224E2,1.0220886E2,3.1209232E2,3.000267E2,4.1551343E2,3.289581E1,1.8930153E2,1.8072087E2,8.2224434E1,1.998443E1],"tree_param":{"num_deleted":"0","num_feature":"32","num_nodes":"15","size_leaf_vector":"1"}},{"base_weights":[-5.210717E-3,3.7180927E-1,-8.296545E-1,5.634665E-1,-1.6946113E-1,-1.0384433E0,-3.4784657E-1,6.6289986E-3,3.631636E-2,-1.404232E-2,7.316225E-2,-4.171159E-2,-6.204186E-2,-8.604165E-3,-6.6817604E-2],"categories":[],"categories_nodes":[],"categories_segments":[],"categories_sizes":[],"default_left":[0,0,0,0,0,0,0,0,0,0,0,0,0,0,0],"id":15,"left_children":[1,3,5,7,9,11,13,-1,-1,-1,-1,-1,-1,-1,-1],"loss_changes":[4.6465207E2,1.0650888E2,4.682718E1,5.308043E1,4.933243E1,1.2470367E1,2.4671482E1,0E0,0E0,0E0,0E0,0E0,0E0,0E0,0E0],"parents":[2147483647,0,0,1,1,2,2,3,3,4,4,5,5,6,6],"right_children":[2,4,6,8,10,12,14,-1,-1,-1,-1,-1,-1,-1,-1],"split_conditions":[3.7290835E-1,2.3943736E-1,9.5509946E-1,-1.1805099E0,-7.794755E-1,1.5775905E0,1.622566E0,6.6289986E-3,3.631636E-2,-1.404232E-2,7.316225E-2,-4.171159E-2,-6.204186E-2,-8.604165E-3,-6.6817604E-2],"split_indices":[14,11,17,7,14,14,4,0,0,0,0,0,0,0,0],"split_type":[0,0,0,0,0,0,0,0,0,0,0,0,0,0,0],"sum_hessian":[1.4928741E3,1.0247861E3,4.6808795E2,7.5677893E2,2.680072E2,3.2576443E2,1.423235E2,2.0807669E2,5.487023E2,2.5166621E2,1.6340998E1,1.6470354E2,1.6106091E2,1.2183454E2,2.0488962E1],"tree_param":{"num_deleted":"0","num_feature":"32","num_nodes":"15","size_leaf_vector":"1"}},{"base_weights":[-1.5181214E-2,3.2927772E-1,-7.888211E-1,5.0138754E-1,-1.5694384E-1,-9.6540093E-1,-1.4083183E-1,3.7652455E-2,7.6488256E-3,-1.3201967E-2,7.141042E-2,-3.686729E-2,-6.0604136E-2,6.1137336E-3,-6.499689E-2],"categories":[],"categories_nodes":[],"categories_segments":[],"categories_sizes":[],"default_left":[0,0,0,0,0,0,0,0,0,0,0,0,0,0,0],"id":16,"left_children":[1,3,5,7,9,11,13,-1,-1,-1,-1,-1,-1,-1,-1],"loss_changes":[3.9606512E2,8.613881E1,5.2254333E1,6.65036E1,4.6148464E1,1.9338959E1,3.0418734E1,0E0,0E0,0E0,0E0,0E0,0E0,0E0,0E0],"parents":[2147483647,0,0,1,1,2,2,3,3,4,4,5,5,6,6],"right_children":[2,4,6,8,10,12,14,-1,-1,-1,-1,-1,-1,-1,-1],"split_conditions":[3.7290835E-1,2.3943736E-1,1.2459261E0,-6.087566E-1,-7.794755E-1,1.5775905E0,1.622566E0,3.7652455E-2,7.6488256E-3,-1.3201967E-2,7.141042E-2,-3.686729E-2,-6.0604136E-2,6.1137336E-3,-6.499689E-2],"split_indices":[14,11,17,19,14,14,4,0,0,0,0,0,0,0,0],"split_type":[0,0,0,0,0,0,0,0,0,0,0,0,0,0,0],"sum_hessian":[1.4842698E3,1.0274E3,4.5686984E2,7.587803E2,2.686197E2,3.5864716E2,9.82227E1,4.3988477E2,3.188955E2,2.5240054E2,1.6219168E1,1.8843227E2,1.7021487E2,8.078072E1,1.7441978E1],"tree_param":{"num_deleted":"0","num_feature":"32","num_nodes":"15","size_leaf_vector":"1"}},{"base_weights":[-3.0045696E-3,3.1715924E-1,-6.8524206E-1,-8.902704E-2,5.665766E-1,-9.1940963E-1,-2.2597076E-1,2.4752043E-2,-2.4432737E-2,3.2556187E-2,-3.7462186E-2,-3.480043E-2,-5.7489257E-2,7.0718224E-3,-4.2879265E-2],"categories":[],"categories_nodes":[],"categories_segments":[],"categories_sizes":[],"default_left":[0,0,0,0,0,0,0,0,0,0,0,0,0,0,0],"id":17,"left_children":[1,3,5,7,9,11,13,-1,-1,-1,-1,-1,-1,-1,-1],"loss_changes":[3.2028943E2,1.0115794E2,5.0160873E1,8.906443E1,6.929074E1,1.5147156E1,3.7130352E1,0E0,0E0,0E0,0E0,0E0,0E0,0E0,0E0],"parents":[2147483647,0,0,1,1,2,2,3,3,4,4,5,5,6,6],"right_children":[2,4,6,8,10,12,14,-1,-1,-1,-1,-1,-1,-1,-1],"split_conditions":[-7.3817395E-2,8.5943334E-2,9.5509946E-1,-1.1617665E0,8.855368E-1,1.0555435E0,1.9025643E0,2.4752043E-2,-2.4432737E-2,3.2556187E-2,-3.7462186E-2,-3.480043E-2,-5.7489257E-2,7.0718224E-3,-4.2879265E-2],"split_indices":[31,17,17,4,4,31,31,0,0,0,0,0,0,0,0],"split_type":[0,0,0,0,0,0,0,0,0,0,0,0,0,0,0],"sum_hessian":[1.4643452E3,9.970022E2,4.6734302E2,3.795434E2,6.174588E2,3.0886227E2,1.5848076E2,1.5409303E2,2.2545036E2,5.8065436E2,3.680442E1,1.5884619E2,1.5001608E2,1.0068743E2,5.779333E1],"tree_param":{"num_deleted":"0","num_feature":"32","num_nodes":"15","size_leaf_vector":"1"}},{"base_weights":[-3.9127E-3,3.1457165E-1,-7.4525034E-1,4.519383E-1,-3.7154517E-1,-9.9353987E-1,-3.1359324E-1,-7.5964625E-3,3.510805E-2,2.8428158E-2,-4.1066345E-2,-4.0392105E-2,-5.93441E-2,1.03461705E-1,-2.0085352E-2],"categories":[],"categories_nodes":[],"categories_segments":[],"categories_sizes":[],"default_left":[0,0,0,0,0,0,0,0,0,0,0,0,0,0,0],"id":18,"left_children":[1,3,5,7,9,11,13,-1,-1,-1,-1,-1,-1,-1,-1],"loss_changes":[3.4822092E2,9.740164E1,4.718933E1,1.3005684E2,7.3467575E1,9.126495E0,3.5118103E1,0E0,0E0,0E0,0E0,0E0,0E0,0E0,0E0],"parents":[2147483647,0,0,1,1,2,2,3,3,4,4,5,5,6,6],"right_children":[2,4,6,8,10,12,14,-1,-1,-1,-1,-1,-1,-1,-1],"split_conditions":[3.7290835E-1,1.3392668E0,4.552258E-1,-5.204464E-1,-1.2436585E0,1.5775905E0,1.2056382E0,-7.5964625E-3,3.510805E-2,2.8428158E-2,-4.1066345E-2,-4.0392105E-2,-5.93441E-2,1.03461705E-1,-2.0085352E-2],"split_indices":[14,16,29,16,4,14,29,0,0,0,0,0,0,0,0],"split_type":[0,0,0,0,0,0,0,0,0,0,0,0,0,0,0],"sum_hessian":[1.472867E3,1.0306622E3,4.4220474E2,8.590201E2,1.7164209E2,2.7990274E2,1.62302E2,2.5178204E2,6.0723804E2,5.5459564E1,1.1618253E2,1.4541522E2,1.3448752E2,4.985923E0,1.5731607E2],"tree_param":{"num_deleted":"0","num_feature":"32","num_nodes":"15","size_leaf_vector":"1"}},{"base_weights":[-8.696965E-3,2.93207E-1,-7.3775244E-1,4.245915E-1,-3.4957746E-1,-9.1150093E-1,-1.3648558E-1,-9.5018195E-3,3.3810783E-2,2.0914746E-2,-3.7282445E-2,-5.5040736E-2,-3.4377787E-2,5.7103657E-3,-6.17749E-2],"categories":[],"categories_nodes":[],"categories_segments":[],"categories_sizes":[],"default_left":[0,0,0,0,0,0,0,0,0,0,0,0,0,0,0],"id":19,"left_children":[1,3,5,7,9,11,13,-1,-1,-1,-1,-1,-1,-1,-1],"loss_changes":[3.1844266E2,8.655349E1,4.4135834E1,1.3157666E2,5.328682E1,1.3170654E1,2.6633766E1,0E0,0E0,0E0,0E0,0E0,0E0,0E0,0E0],"parents":[2147483647,0,0,1,1,2,2,3,3,4,4,5,5,6,6],"right_children":[2,4,6,8,10,12,14,-1,-1,-1,-1,-1,-1,-1,-1],"split_conditions":[3.7290835E-1,1.3392668E0,1.2459261E0,-5.204464E-1,-1.2436585E0,-1.1892031E0,1.622566E0,-9.5018195E-3,3.3810783E-2,2.0914746E-2,-3.7282445E-2,-5.5040736E-2,-3.4377787E-2,5.7103657E-3,-6.17749E-2],"split_indices":[14,16,17,16,4,15,4,0,0,0,0,0,0,0,0],"split_type":[0,0,0,0,0,0,0,0,0,0,0,0,0,0,0],"sum_hessian":[1.4447952E3,1.0221272E3,4.2266794E2,8.489434E2,1.7318378E2,3.2751093E2,9.515703E1,2.4666754E2,6.022759E2,5.8912567E1,1.142712E2,1.7535641E2,1.5215451E2,7.82123E1,1.6944725E1],"tree_param":{"num_deleted":"0","num_feature":"32","num_nodes":"15","size_leaf_vector":"1"}},{"base_weights":[-2.239224E-4,2.9600048E-1,-7.181298E-1,5.471128E-1,-3.3363722E-2,-1.0530097E0,-4.136795E-1,2.0273577E-2,7.450563E-2,-7.7009215E-3,7.389931E-2,-4.650767E-2,-5.9781194E-2,-4.2028094E-4,-4.893599E-2],"categories":[],"categories_nodes":[],"categories_segments":[],"categories_sizes":[],"default_left":[0,0,0,0,0,0,0,0,0,0,0,0,0,0,0],"id":20,"left_children":[1,3,5,7,9,11,13,-1,-1,-1,-1,-1,-1,-1,-1],"loss_changes":[3.050783E2,8.401092E1,4.2286774E1,7.6367874E1,8.051003E1,2.3727722E0,5.0631176E1,0E0,0E0,0E0,0E0,0E0,0E0,0E0,0E0],"parents":[2147483647,0,0,1,1,2,2,3,3,4,4,5,5,6,6],"right_children":[2,4,6,8,10,12,14,-1,-1,-1,-1,-1,-1,-1,-1],"split_conditions":[3.7290835E-1,-6.087566E-1,-7.792329E-1,-1.1182439E0,-7.794755E-1,1.5182487E0,1.5775905E0,2.0273577E-2,7.450563E-2,-7.7009215E-3,7.389931E-2,-4.650767E-2,-5.9781194E-2,-4.2028094E-4,-4.893599E-2],"split_indices":[14,19,28,19,14,3,14,0,0,0,0,0,0,0,0],"split_type":[0,0,0,0,0,0,0,0,0,0,0,0,0,0,0],"sum_hessian":[1.4325743E3,1.01453973E3,4.180346E2,5.752779E2,4.392618E2,1.9789807E2,2.2013654E2,5.0139667E2,7.388124E1,4.076187E2,3.1643095E1,1.1035442E2,8.7543655E1,1.2878247E2,9.1354065E1],"tree_param":{"num_deleted":"0","num_feature":"32","num_nodes":"15","size_leaf_vector":"1"}},{"base_weights":[4.3355296E-3,2.8121293E-1,-6.8057555E-1,-2.2725251E-1,4.595758E-1,-9.3019915E-1,-2.6132616E-1,4.7237184E-3,-3.0448673E-2,7.662634E-2,1.8556442E-2,-3.8096406E-2,-5.5262543E-2,-3.0985618E-2,1.0633101E-2],"categories":[],"categories_nodes":[],"categories_segments":[],"categories_sizes":[],"default_left":[0,0,0,0,0,0,0,0,0,0,0,0,0,0,0],"id":21,"left_children":[1,3,5,7,9,11,13,-1,-1,-1,-1,-1,-1,-1,-1],"loss_changes":[2.698234E2,9.199558E1,4.262419E1,3.2454205E1,7.0646866E1,6.7089996E0,2.6335432E1,0E0,0E0,0E0,0E0,0E0,0E0,0E0,0E0],"parents":[2147483647,0,0,1,1,2,2,3,3,4,4,5,5,6,6],"right_children":[2,4,6,8,10,12,14,-1,-1,-1,-1,-1,-1,-1,-1],"split_conditions":[3.7290835E-1,-1.1892031E0,4.552258E-1,6.777803E-2,8.1738293E-1,1.5775905E0,-5.204464E-1,4.7237184E-3,-3.0448673E-2,7.662634E-2,1.8556442E-2,-3.8096406E-2,-5.5262543E-2,-3.0985618E-2,1.0633101E-2],"split_indices":[14,15,29,9,15,14,16,0,0,0,0,0,0,0,0],"split_type":[0,0,0,0,0,0,0,0,0,0,0,0,0,0,0],"sum_hessian":[1.4208368E3,1.0122294E3,4.086074E2,2.627953E2,7.494341E2,2.553511E2,1.5325629E2,1.4301233E2,1.1978295E2,5.58302E1,6.936039E2,1.3292628E2,1.2242482E2,8.709535E1,6.616093E1],"tree_param":{"num_deleted":"0","num_feature":"32","num_nodes":"15","size_leaf_vector":"1"}},{"base_weights":[-2.4865207E-3,2.659655E-1,-6.577883E-1,5.152824E-1,-6.7329444E-2,-8.331616E-1,-8.361017E-2,1.8713433E-2,7.2416976E-2,-8.9056445E-3,7.114435E-2,-3.1039312E-2,-5.521373E-2,9.923798E-3,-4.861481E-2],"categories":[],"categories_nodes":[],"categories_segments":[],"categories_sizes":[],"default_left":[0,0,0,0,0,0,0,0,0,0,0,0,0,0,0],"id":22,"left_children":[1,3,5,7,9,11,13,-1,-1,-1,-1,-1,-1,-1,-1],"loss_changes":[2.476751E2,8.302794E1,4.1130005E1,7.464952E1,7.095951E1,1.7354156E1,2.446966E1,0E0,0E0,0E0,0E0,0E0,0E0,0E0,0E0],"parents":[2147483647,0,0,1,1,2,2,3,3,4,4,5,5,6,6],"right_children":[2,4,6,8,10,12,14,-1,-1,-1,-1,-1,-1,-1,-1],"split_conditions":[3.7290835E-1,-6.087566E-1,1.2459261E0,-1.1182439E0,-7.794755E-1,1.5775905E0,1.5816199E0,1.8713433E-2,7.2416976E-2,-8.9056445E-3,7.114435E-2,-3.1039312E-2,-5.521373E-2,9.923798E-3,-4.861481E-2],"split_indices":[14,19,17,19,14,14,4,0,0,0,0,0,0,0,0],"split_type":[0,0,0,0,0,0,0,0,0,0,0,0,0,0,0],"sum_hessian":[1.4059137E3,9.977627E2,4.0815097E2,5.70478E2,4.2728464E2,3.1230997E2,9.5840996E1,4.967977E2,7.368035E1,3.9853763E2,2.874701E1,1.7697055E2,1.3533942E2,7.333858E1,2.2502419E1],"tree_param":{"num_deleted":"0","num_feature":"32","num_nodes":"15","size_leaf_vector":"1"}},{"base_weights":[1.2543296E-2,2.6953846E-1,-6.2562126E-1,-1.7802839E-1,4.2994457E-1,-8.184247E-1,-9.273067E-2,7.304821E-3,-2.981172E-2,7.447674E-2,1.7107656E-2,-3.1193053E-2,-5.2511055E-2,1.330129E-2,-3.4732837E-2],"categories":[],"categories_nodes":[],"categories_segments":[],"categories_sizes":[],"default_left":[0,0,0,0,0,0,0,0,0,0,0,0,0,0,0],"id":23,"left_children":[1,3,5,7,9,11,13,-1,-1,-1,-1,-1,-1,-1,-1],"loss_changes":[2.3114186E2,7.220673E1,4.1496475E1,3.611464E1,6.831976E1,1.2739029E1,2.364265E1,0E0,0E0,0E0,0E0,0E0,0E0,0E0,0E0],"parents":[2147483647,0,0,1,1,2,2,3,3,4,4,5,5,6,6],"right_children":[2,4,6,8,10,12,14,-1,-1,-1,-1,-1,-1,-1,-1],"split_conditions":[3.7290835E-1,-1.1892031E0,1.1678184E0,-9.1806465E-1,8.1738293E-1,1.5775905E0,1.5775905E0,7.304821E-3,-2.981172E-2,7.447674E-2,1.7107656E-2,-3.1193053E-2,-5.2511055E-2,1.330129E-2,-3.4732837E-2],"split_indices":[14,15,17,4,15,14,14,0,0,0,0,0,0,0,0],"split_type":[0,0,0,0,0,0,0,0,0,0,0,0,0,0,0],"sum_hessian":[1.4073285E3,1.00370447E3,4.0362408E2,2.6478592E2,7.389185E2,2.9599518E2,1.076289E2,1.4953868E2,1.1524724E2,5.531636E1,6.836022E2,1.6292868E2,1.3306651E2,6.7785706E1,3.9843197E1],"tree_param":{"num_deleted":"0","num_feature":"32","num_nodes":"15","size_leaf_vector":"1"}},{"base_weights":[9.740068E-3,2.5338116E-1,-6.152596E-1,4.9093118E-1,-5.5595525E-2,-7.989523E-1,-3.881454E-2,1.7790414E-2,7.095167E-2,-7.930722E-3,6.995273E-2,-3.0334085E-2,-5.2649587E-2,9.227348E-3,-5.741432E-2],"categories":[],"categories_nodes":[],"categories_segments":[],"categories_sizes":[],"default_left":[0,0,0,0,0,0,0,0,0,0,0,0,0,0,0],"id":24,"left_children":[1,3,5,7,9,11,13,-1,-1,-1,-1,-1,-1,-1,-1],"loss_changes":[2.1110909E2,7.323969E1,4.114476E1,7.022797E1,6.532804E1,1.3762283E1,2.3759518E1,0E0,0E0,0E0,0E0,0E0,0E0,0E0,0E0],"parents":[2147483647,0,0,1,1,2,2,3,3,4,4,5,5,6,6],"right_children":[2,4,6,8,10,12,14,-1,-1,-1,-1,-1,-1,-1,-1],"split_conditions":[3.7290835E-1,-6.087566E-1,1.2459261E0,-1.1182439E0,-7.794755E-1,1.5775905E0,1.622566E0,1.7790414E-2,7.095167E-2,-7.930722E-3,6.995273E-2,-3.0334085E-2,-5.2649587E-2,9.227348E-3,-5.741432E-2],"split_indices":[14,19,17,19,14,14,4,0,0,0,0,0,0,0,0],"split_type":[0,0,0,0,0,0,0,0,0,0,0,0,0,0,0],"sum_hessian":[1.384338E3,9.964792E2,3.8785886E2,5.630226E2,4.3345657E2,2.9383728E2,9.402156E1,4.9267688E2,7.034571E1,4.0562128E2,2.7835306E1,1.6918056E2,1.2465673E2,7.895901E1,1.50625515E1],"tree_param":{"num_deleted":"0","num_feature":"32","num_nodes":"15","size_leaf_vector":"1"}},{"base_weights":[-2.3935879E-2,2.7127102E-1,-4.8464137E-1,6.174449E-1,-7.229797E-2,-3.1699684E-1,-1.0236584E0,3.6923617E-2,-5.015545E-3,-2.7125208E-2,1.1790126E-2,-1.9367708E-2,1.2649593E-1,-5.4359883E-2,-3.360368E-2],"categories":[],"categories_nodes":[],"categories_segments":[],"categories_sizes":[],"default_left":[0,0,0,0,0,0,0,0,0,0,0,0,0,0,0],"id":25,"left_children":[1,3,5,7,9,11,13,-1,-1,-1,-1,-1,-1,-1,-1],"loss_changes":[1.8702078E2,9.972899E1,4.820118E1,3.6349762E1,6.1198185E1,8.3315575E1,2.1052704E0,0E0,0E0,0E0,0E0,0E0,0E0,0E0,0E0],"parents":[2147483647,0,0,1,1,2,2,3,3,4,4,5,5,6,6],"right_children":[2,4,6,8,10,12,14,-1,-1,-1,-1,-1,-1,-1,-1],"split_conditions":[2.4774E-1,-6.087566E-1,1.5775905E0,1.3392668E0,-5.204464E-1,4.7938412E-1,1.3614532E0,3.6923617E-2,-5.015545E-3,-2.7125208E-2,1.1790126E-2,-1.9367708E-2,1.2649593E-1,-5.4359883E-2,-3.360368E-2],"split_indices":[8,19,14,16,16,14,17,0,0,0,0,0,0,0,0],"split_type":[0,0,0,0,0,0,0,0,0,0,0,0,0,0,0],"sum_hessian":[1.3731514E3,8.3714435E2,5.3600696E2,4.1659436E2,4.2055002E2,4.1005893E2,1.2594801E2,3.564595E2,6.013483E1,1.6617776E2,2.5437225E2,4.0101245E2,9.046488E0,1.04898254E2,2.1049765E1],"tree_param":{"num_deleted":"0","num_feature":"32","num_nodes":"15","size_leaf_vector":"1"}},{"base_weights":[-1.1047892E-2,2.6960984E-1,-4.5390147E-1,-2.387044E-1,4.6164224E-1,-6.201697E-1,-2.867922E-2,2.8739108E-2,-1.9309407E-2,7.4848875E-2,1.688828E-2,4.2551006E-3,-3.9428096E-2,8.0486976E-2,-7.43065E-3],"categories":[],"categories_nodes":[],"categories_segments":[],"categories_sizes":[],"default_left":[0,0,0,0,0,0,0,0,0,0,0,0,0,0,0],"id":26,"left_children":[1,3,5,7,9,11,13,-1,-1,-1,-1,-1,-1,-1,-1],"loss_changes":[1.6969148E2,8.168524E1,3.7425354E1,2.7793074E1,7.7331055E1,4.527751E1,2.9698557E1,0E0,0E0,0E0,0E0,0E0,0E0,0E0,0E0],"parents":[2147483647,0,0,1,1,2,2,3,3,4,4,5,5,6,6],"right_children":[2,4,6,8,10,12,14,-1,-1,-1,-1,-1,-1,-1,-1],"split_conditions":[2.3943736E-1,-5.204464E-1,4.552258E-1,-1.0389283E0,4.0252823E-1,-1.1617665E0,1.3373667E0,2.8739108E-2,-1.9309407E-2,7.4848875E-2,1.688828E-2,4.2551006E-3,-3.9428096E-2,8.0486976E-2,-7.43065E-3],"split_indices":[11,16,29,4,16,4,29,0,0,0,0,0,0,0,0],"split_type":[0,0,0,0,0,0,0,0,0,0,0,0,0,0,0],"sum_hessian":[1.363299E3,8.3470026E2,5.2859875E2,2.2880501E2,6.0589526E2,3.796798E2,1.4891891E2,3.4670918E1,1.9413408E2,6.356317E1,5.423321E2,7.3275795E1,3.0640402E2,9.310193E0,1.3960873E2],"tree_param":{"num_deleted":"0","num_feature":"32","num_nodes":"15","size_leaf_vector":"1"}},{"base_weights":[-8.405562E-3,2.1487972E-1,-5.894873E-1,3.8343397E-1,-2.0330516E-1,-3.58424E-1,-9.206446E-1,3.0001367E-2,4.5406814E-3,-1.3253785E-2,6.30733E-2,-2.9210044E-2,1.24667004E-1,-5.0377548E-2,-3.0311977E-2],"categories":[],"categories_nodes":[],"categories_segments":[],"categories_sizes":[],"default_left":[0,0,0,0,0,0,0,0,0,0,0,0,0,0,0],"id":27,"left_children":[1,3,5,7,9,11,13,-1,-1,-1,-1,-1,-1,-1,-1],"loss_changes":[1.7808298E2,6.997008E1,2.8823578E1,4.4758713E1,2.6166565E1,1.4700401E2,3.6502686E0,0E0,0E0,0E0,0E0,0E0,0E0,0E0,0E0],"parents":[2147483647,0,0,1,1,2,2,3,3,4,4,5,5,6,6],"right_children":[2,4,6,8,10,12,14,-1,-1,-1,-1,-1,-1,-1,-1],"split_conditions":[3.7290835E-1,2.4774E-1,1.5775905E0,-6.087566E-1,-7.794755E-1,4.7938412E-1,1.2808211E0,3.0001367E-2,4.5406814E-3,-1.3253785E-2,6.30733E-2,-2.9210044E-2,1.24667004E-1,-5.0377548E-2,-3.0311977E-2],"split_indices":[14,8,14,19,14,14,17,0,0,0,0,0,0,0,0],"split_type":[0,0,0,0,0,0,0,0,0,0,0,0,0,0,0],"sum_hessian":[1.3705638E3,9.9056256E2,3.8000134E2,7.0606E2,2.8450253E2,2.2505362E2,1.5494771E2,4.0513464E2,3.0092535E2,2.737762E2,1.0726321E1,2.0927988E2,1.5773741E1,1.1966564E2,3.5282074E1],"tree_param":{"num_deleted":"0","num_feature":"32","num_nodes":"15","size_leaf_vector":"1"}},{"base_weights":[-1.1514118E-2,2.6351482E-1,-4.3681106E-1,4.8391607E-1,-1.5488456E-1,-2.790094E-1,-9.0967065E-1,2.0311676E-2,8.0761865E-2,-2.7555173E-2,4.166449E-3,-1.74555E-2,1.2098787E-1,-5.1982295E-2,-3.125874E-2],"categories":[],"categories_nodes":[],"categories_segments":[],"categories_sizes":[],"default_left":[0,0,0,0,0,0,0,0,0,0,0,0,0,0,0],"id":28,"left_children":[1,3,5,7,9,11,13,-1,-1,-1,-1,-1,-1,-1,-1],"loss_changes":[1.5681691E2,7.515651E1,3.903202E1,4.623172E1,2.663163E1,7.57995E1,4.2049713E0,0E0,0E0,0E0,0E0,0E0,0E0,0E0,0E0],"parents":[2147483647,0,0,1,1,2,2,3,3,4,4,5,5,6,6],"right_children":[2,4,6,8,10,12,14,-1,-1,-1,-1,-1,-1,-1,-1],"split_conditions":[2.3943736E-1,-8.980749E-2,1.5775905E0,-5.757302E-1,-1.101479E0,4.7938412E-1,4.552258E-1,2.0311676E-2,8.0761865E-2,-2.7555173E-2,4.166449E-3,-1.74555E-2,1.2098787E-1,-5.1982295E-2,-3.125874E-2],"split_indices":[11,19,14,19,13,14,29,0,0,0,0,0,0,0,0],"split_type":[0,0,0,0,0,0,0,0,0,0,0,0,0,0,0],"sum_hessian":[1.338687E3,8.1319464E2,5.254924E2,5.325208E2,2.8067383E2,3.9519785E2,1.3029451E2,4.9957635E2,3.294449E1,1.0489283E2,1.75781E2,3.8604105E2,9.156791E0,8.761309E1,4.268141E1],"tree_param":{"num_deleted":"0","num_feature":"32","num_nodes":"15","size_leaf_vector":"1"}},{"base_weights":[-9.0732664E-4,2.0159326E-1,-5.3353506E-1,3.2549608E-1,-3.8555065E-1,-8.792341E-1,-2.5630957E-1,-8.735892E-3,2.732572E-2,2.071469E-2,-3.825168E-2,-3.754883E-2,-5.201578E-2,4.0800944E-3,-3.9935898E-2],"categories":[],"categories_nodes":[],"categories_segments":[],"categories_sizes":[],"default_left":[0,0,0,0,0,0,0,0,0,0,0,0,0,0,0],"id":29,"left_children":[1,3,5,7,9,11,13,-1,-1,-1,-1,-1,-1,-1,-1],"loss_changes":[1.4342706E2,7.021756E1,3.488012E1,8.811308E1,5.1415245E1,2.578247E0,3.7583263E1,0E0,0E0,0E0,0E0,0E0,0E0,0E0,0E0],"parents":[2147483647,0,0,1,1,2,2,3,3,4,4,5,5,6,6],"right_children":[2,4,6,8,10,12,14,-1,-1,-1,-1,-1,-1,-1,-1],"split_conditions":[3.7290835E-1,1.3392668E0,-7.792329E-1,-5.204464E-1,-1.2436585E0,1.5182487E0,1.5775905E0,-8.735892E-3,2.732572E-2,2.071469E-2,-3.825168E-2,-3.754883E-2,-5.201578E-2,4.0800944E-3,-3.9935898E-2],"split_indices":[14,16,28,16,4,3,14,0,0,0,0,0,0,0,0],"split_type":[0,0,0,0,0,0,0,0,0,0,0,0,0,0,0],"sum_hessian":[1.3277866E3,9.624809E2,3.6530566E2,7.951326E2,1.6734828E2,1.6160872E2,2.0369695E2,2.4372893E2,5.514037E2,5.381966E1,1.1352862E2,9.312339E1,6.848532E1,1.26031166E2,7.766578E1],"tree_param":{"num_deleted":"0","num_feature":"32","num_nodes":"15","size_leaf_vector":"1"}},{"base_weights":[-8.81705E-3,2.4007766E-1,-4.0499085E-1,-2.135788E-1,4.141554E-1,2.0616359E-1,-5.133711E-1,2.4925532E-2,-1.8363431E-2,7.1558535E-2,1.4517115E-2,6.354113E-3,7.257931E-2,-3.6714267E-2,-4.8590367E-4],"categories":[],"categories_nodes":[],"categories_segments":[],"categories_sizes":[],"default_left":[0,0,0,0,0,0,0,0,0,0,0,0,0,0,0],"id":30,"left_children":[1,3,5,7,9,11,13,-1,-1,-1,-1,-1,-1,-1,-1],"loss_changes":[1.3174323E2,6.489053E1,3.4251137E1,2.5159096E1,7.4300385E1,7.5332885E0,4.8742165E1,0E0,0E0,0E0,0E0,0E0,0E0,0E0,0E0],"parents":[2147483647,0,0,1,1,2,2,3,3,4,4,5,5,6,6],"right_children":[2,4,6,8,10,12,14,-1,-1,-1,-1,-1,-1,-1,-1],"split_conditions":[2.4774E-1,-5.204464E-1,-1.1617665E0,-9.996293E-1,4.0252823E-1,-1.2001272E0,4.552258E-1,2.4925532E-2,-1.8363431E-2,7.1558535E-2,1.4517115E-2,6.354113E-3,7.257931E-2,-3.6714267E-2,-4.8590367E-4],"split_indices":[8,16,4,4,16,4,29,0,0,0,0,0,0,0,0],"split_type":[0,0,0,0,0,0,0,0,0,0,0,0,0,0,0],"sum_hessian":[1.3340768E3,8.195755E2,5.145013E2,2.2721455E2,5.9236096E2,7.736111E1,4.3714017E2,3.993598E1,1.8727858E2,6.314244E1,5.292185E2,7.37784E1,3.5827107E0,3.0354163E2,1.3359854E2],"tree_param":{"num_deleted":"0","num_feature":"32","num_nodes":"15","size_leaf_vector":"1"}},{"base_weights":[-9.941725E-3,2.373213E-1,-4.0216243E-1,-2.2563235E-1,4.1585028E-1,-2.567678E-1,-9.2422813E-1,3.0442402E-3,-3.226768E-2,7.117541E-2,1.48622515E-2,-1.5895164E-2,1.1049523E-1,-4.072459E-2,-5.663526E-2],"categories":[],"categories_nodes":[],"categories_segments":[],"categories_sizes":[],"default_left":[0,0,0,0,0,0,0,0,0,0,0,0,0,0,0],"id":31,"left_children":[1,3,5,7,9,11,13,-1,-1,-1,-1,-1,-1,-1,-1],"loss_changes":[1.2820793E2,6.7110985E1,3.8561676E1,2.725508E1,6.955631E1,6.120217E1,1.6159058E0,0E0,0E0,0E0,0E0,0E0,0E0,0E0,0E0],"parents":[2147483647,0,0,1,1,2,2,3,3,4,4,5,5,6,6],"right_children":[2,4,6,8,10,12,14,-1,-1,-1,-1,-1,-1,-1,-1],"split_conditions":[2.4774E-1,-5.204464E-1,1.5775905E0,-5.342103E-1,4.0252823E-1,4.7938412E-1,1.5816199E0,3.0442402E-3,-3.226768E-2,7.117541E-2,1.48622515E-2,-1.5895164E-2,1.1049523E-1,-4.072459E-2,-5.663526E-2],"split_indices":[8,16,14,16,16,14,4,0,0,0,0,0,0,0,0],"split_type":[0,0,0,0,0,0,0,0,0,0,0,0,0,0,0],"sum_hessian":[1.3199968E3,8.098486E2,5.1014825E2,2.2531293E2,5.8453564E2,4.001882E2,1.0996007E2,1.3441277E2,9.090016E1,6.0398056E1,5.241376E2,3.9135962E2,8.828564E0,7.525492E1,3.470515E1],"tree_param":{"num_deleted":"0","num_feature":"32","num_nodes":"15","size_leaf_vector":"1"}},{"base_weights":[2.025595E-4,1.8476996E-1,-5.105136E-1,-1.289525E-1,4.161736E-1,-8.245398E-1,-2.5636572E-1,1.8992096E-2,-2.4046998E-2,3.0475575E-2,3.3783403E-3,-3.2089543E-2,-4.7673486E-2,3.1130638E-3,-3.8878974E-2],"categories":[],"categories_nodes":[],"categories_segments":[],"categories_sizes":[],"default_left":[0,0,0,0,0,0,0,0,0,0,0,0,0,0,0],"id":32,"left_children":[1,3,5,7,9,11,13,-1,-1,-1,-1,-1,-1,-1,-1],"loss_changes":[1.23029915E2,6.965367E1,2.7440308E1,7.320407E1,3.7162086E1,3.0290375E0,3.209125E1,0E0,0E0,0E0,0E0,0E0,0E0,0E0,0E0],"parents":[2147483647,0,0,1,1,2,2,3,3,4,4,5,5,6,6],"right_children":[2,4,6,8,10,12,14,-1,-1,-1,-1,-1,-1,-1,-1],"split_conditions":[3.7290835E-1,-3.882032E-1,-7.792329E-1,-1.1617665E0,-2.6095304E-1,6.6933024E-1,1.5775905E0,1.8992096E-2,-2.4046998E-2,3.0475575E-2,3.3783403E-3,-3.2089543E-2,-4.7673486E-2,3.1130638E-3,-3.8878974E-2],"split_indices":[14,29,28,4,4,2,14,0,0,0,0,0,0,0,0],"split_type":[0,0,0,0,0,0,0,0,0,0,0,0,0,0,0],"sum_hessian":[1.3031965E3,9.577236E2,3.4547293E2,4.0673743E2,5.5098615E2,1.5352834E2,1.9194458E2,1.6628906E2,2.4044836E2,3.539413E2,1.9704485E2,6.598175E1,8.7546585E1,1.19669235E2,7.227534E1],"tree_param":{"num_deleted":"0","num_feature":"32","num_nodes":"15","size_leaf_vector":"1"}},{"base_weights":[8.4992945E-3,1.8483146E-1,-4.795432E-1,-2.2610343E-1,3.363501E-1,-6.4204776E-1,-1.6500296E-2,4.822876E-3,-2.6361251E-2,7.0564814E-2,1.2872483E-2,-2.3706265E-2,-4.5250338E-2,1.2230174E-2,-3.5030864E-2],"categories":[],"categories_nodes":[],"categories_segments":[],"categories_sizes":[],"default_left":[0,0,0,0,0,0,0,0,0,0,0,0,0,0,0],"id":33,"left_children":[1,3,5,7,9,11,13,-1,-1,-1,-1,-1,-1,-1,-1],"loss_changes":[1.12016426E2,5.960941E1,2.5985237E1,2.5127047E1,5.8918785E1,1.0861862E1,1.6385902E1,0E0,0E0,0E0,0E0,0E0,0E0,0E0,0E0],"parents":[2147483647,0,0,1,1,2,2,3,3,4,4,5,5,6,6],"right_children":[2,4,6,8,10,12,14,-1,-1,-1,-1,-1,-1,-1,-1],"split_conditions":[3.7290835E-1,-1.1892031E0,1.2459261E0,-1.0389283E0,8.1554884E-1,1.5775905E0,1.5406739E0,4.822876E-3,-2.6361251E-2,7.0564814E-2,1.2872483E-2,-2.3706265E-2,-4.5250338E-2,1.2230174E-2,-3.5030864E-2],"split_indices":[14,15,17,4,15,14,4,0,0,0,0,0,0,0,0],"split_type":[0,0,0,0,0,0,0,0,0,0,0,0,0,0,0],"sum_hessian":[1.299615E3,9.5513965E2,3.4447537E2,2.5717126E2,6.979684E2,2.547015E2,8.9773865E1,1.244936E2,1.3267766E2,4.6572575E1,6.513958E2,1.5715027E2,9.755123E1,6.54401E1,2.4333767E1],"tree_param":{"num_deleted":"0","num_feature":"32","num_nodes":"15","size_leaf_vector":"1"}},{"base_weights":[3.9662584E-3,1.5953466E-1,-5.5844367E-1,9.1129035E-2,1.7470183E0,1.5805282E-1,-6.799698E-1,-1.7848987E-2,1.3669605E-2,7.454941E-2,1.298648E-1,1.6432028E-2,-4.5792654E-2,-5.258822E-2,-2.5384484E-2],"categories":[],"categories_nodes":[],"categories_segments":[],"categories_sizes":[],"default_left":[0,0,0,0,0,0,0,0,0,0,0,0,0,0,0],"id":34,"left_children":[1,3,5,7,9,11,13,-1,-1,-1,-1,-1,-1,-1,-1],"loss_changes":[1.11511E2,1.0825282E2,2.415329E1,7.835311E1,5.0936813E0,7.786045E0,1.4601616E1,0E0,0E0,0E0,0E0,0E0,0E0,0E0,0E0],"parents":[2147483647,0,0,1,1,2,2,3,3,4,4,5,5,6,6],"right_children":[2,4,6,8,10,12,14,-1,-1,-1,-1,-1,-1,-1,-1],"split_conditions":[1.5182487E0,-6.167592E-1,-1.1208204E0,-1.1892031E0,3.6522365E-1,2.2700854E-1,-4.3422085E-1,-1.7848987E-2,1.3669605E-2,7.454941E-2,1.298648E-1,1.6432028E-2,-4.5792654E-2,-5.258822E-2,-2.5384484E-2],"split_indices":[3,3,4,15,14,24,17,0,0,0,0,0,0,0,0],"split_type":[0,0,0,0,0,0,0,0,0,0,0,0,0,0,0],"sum_hessian":[1.2724922E3,9.9733527E2,2.7515692E2,9.5714856E2,4.01867E1,3.9858383E1,2.3529854E2,2.7646875E2,6.806798E2,3.3002674E1,7.184026E0,3.4993683E1,4.864698E0,7.289032E1,1.6240822E2],"tree_param":{"num_deleted":"0","num_feature":"32","num_nodes":"15","size_leaf_vector":"1"}},{"base_weights":[-1.4134643E-2,1.5508862E-1,-4.8346272E-1,2.7338243E-1,-3.82517E-1,-6.523981E-1,-1.3941397E-3,9.247715E-3,6.9773875E-2,1.9847836E-2,-3.84349E-2,-2.3830248E-2,-4.59336E-2,1.1604766E-2,-4.4039853E-2],"categories":[],"categories_nodes":[],"categories_segments":[],"categories_sizes":[],"default_left":[0,0,0,0,0,0,0,0,0,0,0,0,0,0,0],"id":35,"left_children":[1,3,5,7,9,11,13,-1,-1,-1,-1,-1,-1,-1,-1],"loss_changes":[1.0247332E2,6.0417397E1,2.7844818E1,7.6931046E1,5.1918003E1,1.1413879E1,1.8629065E1,0E0,0E0,0E0,0E0,0E0,0E0,0E0,0E0],"parents":[2147483647,0,0,1,1,2,2,3,3,4,4,5,5,6,6],"right_children":[2,4,6,8,10,12,14,-1,-1,-1,-1,-1,-1,-1,-1],"split_conditions":[3.7290835E-1,1.3392668E0,1.2459261E0,4.4457352E-1,-1.2436585E0,1.5775905E0,1.5816199E0,9.247715E-3,6.9773875E-2,1.9847836E-2,-3.84349E-2,-2.3830248E-2,-4.59336E-2,1.1604766E-2,-4.4039853E-2],"split_indices":[14,16,17,16,4,14,4,0,0,0,0,0,0,0,0],"split_type":[0,0,0,0,0,0,0,0,0,0,0,0,0,0,0],"sum_hessian":[1.2883069E3,9.4738324E2,3.4092365E2,7.769222E2,1.704611E2,2.521924E2,8.873125E1,7.212481E2,5.5674053E1,5.646446E1,1.1399665E2,1.5358557E2,9.860682E1,7.069671E1,1.8034542E1],"tree_param":{"num_deleted":"0","num_feature":"32","num_nodes":"15","size_leaf_vector":"1"}},{"base_weights":[-1.3667672E-2,2.0608954E-1,-3.6932608E-1,-2.126602E-1,3.7527832E-1,-4.9802604E-1,-1.9570427E-2,2.9411023E-3,-3.1014338E-2,6.863597E-2,1.27922585E-2,5.8643385E-3,-3.3241805E-2,8.781563E-2,-6.6349544E-3],"categories":[],"categories_nodes":[],"categories_segments":[],"categories_sizes":[],"default_left":[0,0,0,0,0,0,0,0,0,0,0,0,0,0,0],"id":36,"left_children":[1,3,5,7,9,11,13,-1,-1,-1,-1,-1,-1,-1,-1],"loss_changes":[9.918309E1,5.565245E1,2.1805176E1,2.5086325E1,6.624522E1,3.643612E1,2.663211E1,0E0,0E0,0E0,0E0,0E0,0E0,0E0,0E0],"parents":[2147483647,0,0,1,1,2,2,3,3,4,4,5,5,6,6],"right_children":[2,4,6,8,10,12,14,-1,-1,-1,-1,-1,-1,-1,-1],"split_conditions":[2.4774E-1,-5.204464E-1,4.552258E-1,-5.342103E-1,4.0252823E-1,-1.1617665E0,1.3373667E0,2.9411023E-3,-3.1014338E-2,6.863597E-2,1.27922585E-2,5.8643385E-3,-3.3241805E-2,8.781563E-2,-6.6349544E-3],"split_indices":[8,16,29,16,16,4,29,0,0,0,0,0,0,0,0],"split_type":[0,0,0,0,0,0,0,0,0,0,0,0,0,0,0],"sum_hessian":[1.2670256E3,7.8339526E2,4.8363034E2,2.253607E2,5.580346E2,3.5322855E2,1.304018E2,1.3578357E2,8.957713E1,5.85514E1,4.994832E2,7.539938E1,2.7782916E2,6.939606E0,1.2346219E2],"tree_param":{"num_deleted":"0","num_feature":"32","num_nodes":"15","size_leaf_vector":"1"}},{"base_weights":[-5.090761E-3,2.3457162E-1,-3.3607092E-1,4.1319105E-1,-3.4175408E-1,-6.3064355E-1,-1.3468243E-1,1.6524078E-2,7.662803E-2,-9.105778E-3,-5.0152916E-2,-2.6910443E-2,-5.1681932E-2,3.6015143E-3,-2.8983688E-2],"categories":[],"categories_nodes":[],"categories_segments":[],"categories_sizes":[],"default_left":[0,0,0,0,0,0,0,0,0,0,0,0,0,0,0],"id":37,"left_children":[1,3,5,7,9,11,13,-1,-1,-1,-1,-1,-1,-1,-1],"loss_changes":[1.00196495E2,7.556227E1,3.1385902E1,5.131727E1,1.8174988E1,7.457779E0,2.914181E1,0E0,0E0,0E0,0E0,0E0,0E0,0E0,0E0],"parents":[2147483647,0,0,1,1,2,2,3,3,4,4,5,5,6,6],"right_children":[2,4,6,8,10,12,14,-1,-1,-1,-1,-1,-1,-1,-1],"split_conditions":[-8.980749E-2,1.3392668E0,-7.792329E-1,-5.757302E-1,-6.3867277E-1,1.0544037E0,1.4670398E0,1.6524078E-2,7.662803E-2,-9.105778E-3,-5.0152916E-2,-2.6910443E-2,-5.1681932E-2,3.6015143E-3,-2.8983688E-2],"split_indices":[19,16,28,19,19,16,19,0,0,0,0,0,0,0,0],"split_type":[0,0,0,0,0,0,0,0,0,0,0,0,0,0,0],"sum_hessian":[1.2611438E3,7.316489E2,5.2949493E2,5.5875745E2,1.728915E2,2.1413962E2,3.153553E2,5.21518E2,3.72394E1,1.4029881E2,3.2592674E1,1.7608633E2,3.8053284E1,2.1590065E2,9.9454636E1],"tree_param":{"num_deleted":"0","num_feature":"32","num_nodes":"15","size_leaf_vector":"1"}},{"base_weights":[-1.9634055E-2,3.1267664E-1,-2.5746024E-1,1.7607233E-1,6.739395E-2,-6.4306575E-1,-6.691304E-2,-4.7708945E-3,2.8164728E-2,-9.844509E-3,-4.071725E-2,-3.7048828E-2,5.178779E-3],"categories":[],"categories_nodes":[],"categories_segments":[],"categories_sizes":[],"default_left":[0,0,0,0,0,0,0,0,0,0,0,0,0],"id":38,"left_children":[1,3,5,7,-1,9,11,-1,-1,-1,-1,-1,-1],"loss_changes":[9.868148E1,7.342139E1,5.3427647E1,4.8549362E1,0E0,1.822348E1,5.6177128E1,0E0,0E0,0E0,0E0,0E0,0E0],"parents":[2147483647,0,0,1,1,2,2,3,3,5,5,6,6],"right_children":[2,4,6,8,-1,10,12,-1,-1,-1,-1,-1,-1],"split_conditions":[-6.087566E-1,-1.1182439E0,-3.882032E-1,-3.882032E-1,6.739395E-2,3.2957345E-1,-1.3762013E0,-4.7708945E-3,2.8164728E-2,-9.844509E-3,-4.071725E-2,-3.7048828E-2,5.178779E-3],"split_indices":[19,19,29,29,0,5,16,0,0,0,0,0,0],"split_type":[0,0,0,0,0,0,0,0,0,0,0,0,0],"sum_hessian":[1.2466053E3,5.198761E2,7.2672925E2,4.6030484E2,5.957129E1,2.3956097E2,4.8716827E2,2.7103186E2,1.8927296E2,6.704942E1,1.7251155E2,9.766852E1,3.8949976E2],"tree_param":{"num_deleted":"0","num_feature":"32","num_nodes":"13","size_leaf_vector":"1"}},{"base_weights":[9.396173E-3,3.1999925E-1,-2.186753E-1,1.8995613E-1,6.604972E-2,-6.4194554E-1,-3.8529962E-2,1.9175775E-2,-1.7369872E-2,-2.6365548E-2,-5.114026E-2,8.803301E-2,-7.310729E-3],"categories":[],"categories_nodes":[],"categories_segments":[],"categories_sizes":[],"default_left":[0,0,0,0,0,0,0,0,0,0,0,0,0],"id":39,"left_children":[1,3,5,7,-1,9,11,-1,-1,-1,-1,-1,-1],"loss_changes":[8.706066E1,6.7481834E1,5.4010895E1,4.8151733E1,0E0,8.694778E0,9.677356E1,0E0,0E0,0E0,0E0,0E0,0E0],"parents":[2147483647,0,0,1,1,2,2,3,3,5,5,6,6],"right_children":[2,4,6,8,-1,10,12,-1,-1,-1,-1,-1,-1],"split_conditions":[-6.087566E-1,-1.1182439E0,-1.1892031E0,-1.0389283E0,6.604972E-2,1.0876942E0,7.99822E-1,1.9175775E-2,-1.7369872E-2,-2.6365548E-2,-5.114026E-2,8.803301E-2,-7.310729E-3],"split_indices":[19,19,15,4,0,16,15,0,0,0,0,0,0],"split_type":[0,0,0,0,0,0,0,0,0,0,0,0,0],"sum_hessian":[1.2269933E3,5.1933075E2,7.076626E2,4.6067273E2,5.8657993E1,2.1050223E2,4.9716037E2,3.388885E2,1.2178424E2,1.6363458E2,4.686765E1,2.7208677E1,4.699517E2],"tree_param":{"num_deleted":"0","num_feature":"32","num_nodes":"13","size_leaf_vector":"1"}},{"base_weights":[1.1552585E-2,-3.7941775E-1,1.9073708E-1,-2.1804105E-2,-5.4300976E-1,1.5062157E0,1.0292068E-1,4.62833E-3,-5.679967E-2,-3.6401935E-2,-1.532308E-2,6.737924E-2,1.0840817E-1,1.1675355E-2,-2.4590263E-2],"categories":[],"categories_nodes":[],"categories_segments":[],"categories_sizes":[],"default_left":[0,0,0,0,0,0,0,0,0,0,0,0,0,0,0],"id":40,"left_children":[1,3,5,7,9,11,13,-1,-1,-1,-1,-1,-1,-1,-1],"loss_changes":[8.661432E1,2.2720306E1,9.777907E1,1.57793455E1,1.1443901E1,2.6412506E0,6.1917946E1,0E0,0E0,0E0,0E0,0E0,0E0,0E0,0E0],"parents":[2147483647,0,0,1,1,2,2,3,3,4,4,5,5,6,6],"right_children":[2,4,6,8,10,12,14,-1,-1,-1,-1,-1,-1,-1,-1],"split_conditions":[-1.1892031E0,-1.0798744E0,8.1738293E-1,1.1865762E0,-3.882032E-1,3.6522365E-1,1.5157635E0,4.62833E-3,-5.679967E-2,-3.6401935E-2,-1.532308E-2,6.737924E-2,1.0840817E-1,1.1675355E-2,-2.4590263E-2],"split_indices":[15,4,15,9,29,14,3,0,0,0,0,0,0,0,0],"split_type":[0,0,0,0,0,0,0,0,0,0,0,0,0,0,0],"sum_hessian":[1.2343285E3,3.8756543E2,8.4676306E2,1.2200176E2,2.6556366E2,5.197858E1,7.947845E2,1.1147578E2,1.0525987E1,1.4784273E2,1.1772095E2,4.4379215E1,7.5993633E0,6.5218823E2,1.4259627E2],"tree_param":{"num_deleted":"0","num_feature":"32","num_nodes":"15","size_leaf_vector":"1"}},{"base_weights":[-6.264862E-3,1.2345741E-1,-4.8261136E-1,5.064027E-2,1.6904665E0,1.2549E-1,-5.96782E-1,-1.6479647E-2,1.0119105E-2,7.218947E-2,1.2413925E-1,2.1803392E-2,-1.1234623E-2,-4.485498E-2,-1.654673E-2],"categories":[],"categories_nodes":[],"categories_segments":[],"categories_sizes":[],"default_left":[0,0,0,0,0,0,0,0,0,0,0,0,0,0,0],"id":41,"left_children":[1,3,5,7,9,11,13,-1,-1,-1,-1,-1,-1,-1,-1],"loss_changes":[7.637989E1,1.1077184E2,1.8442818E1,5.369214E1,4.8412323E0,4.7361355E0,1.7500534E1,0E0,0E0,0E0,0E0,0E0,0E0,0E0,0E0],"parents":[2147483647,0,0,1,1,2,2,3,3,4,4,5,5,6,6],"right_children":[2,4,6,8,10,12,14,-1,-1,-1,-1,-1,-1,-1,-1],"split_conditions":[1.5182487E0,-6.167592E-1,-1.1208204E0,-1.1892031E0,3.6522365E-1,-5.7972515E-1,-3.882032E-1,-1.6479647E-2,1.0119105E-2,7.218947E-2,1.2413925E-1,2.1803392E-2,-1.1234623E-2,-4.485498E-2,-1.654673E-2],"split_indices":[3,3,4,15,14,9,29,0,0,0,0,0,0,0,0],"split_type":[0,0,0,0,0,0,0,0,0,0,0,0,0,0,0],"sum_hessian":[1.2341014E3,9.70538E2,2.6356342E2,9.2842737E2,4.2110653E1,4.1646202E1,2.219172E2,2.644925E2,6.639349E2,3.4264973E1,7.845677E0,2.1941214E1,1.9704987E1,1.0308808E2,1.18829124E2],"tree_param":{"num_deleted":"0","num_feature":"32","num_nodes":"15","size_leaf_vector":"1"}},{"base_weights":[1.4242008E-2,3.0369973E-1,-1.9831057E-1,1.8248281E-1,6.4325176E-2,-5.722569E-1,-2.6096266E-2,-2.467609E-3,2.5852302E-2,-6.36175E-3,-3.7737384E-2,-1.7869351E-2,1.1658995E-2],"categories":[],"categories_nodes":[],"categories_segments":[],"categories_sizes":[],"default_left":[0,0,0,0,0,0,0,0,0,0,0,0,0],"id":42,"left_children":[1,3,5,7,-1,9,11,-1,-1,-1,-1,-1,-1],"loss_changes":[7.5218666E1,6.143064E1,4.5384464E1,3.5856213E1,0E0,1.795282E1,4.1633633E1,0E0,0E0,0E0,0E0,0E0,0E0],"parents":[2147483647,0,0,1,1,2,2,3,3,5,5,6,6],"right_children":[2,4,6,8,-1,10,12,-1,-1,-1,-1,-1,-1],"split_conditions":[-6.087566E-1,-1.1182439E0,-3.882032E-1,-3.882032E-1,6.4325176E-2,3.2957345E-1,-5.204464E-1,-2.467609E-3,2.5852302E-2,-6.36175E-3,-3.7737384E-2,-1.7869351E-2,1.1658995E-2],"split_indices":[19,19,29,29,0,5,16,0,0,0,0,0,0],"split_type":[0,0,0,0,0,0,0,0,0,0,0,0,0],"sum_hessian":[1.2205923E3,5.1662067E2,7.039716E2,4.6095334E2,5.5667324E1,2.212425E2,4.8272913E2,2.72782E2,1.8817133E2,6.483446E1,1.5640804E2,2.117661E2,2.70963E2],"tree_param":{"num_deleted":"0","num_feature":"32","num_nodes":"13","size_leaf_vector":"1"}},{"base_weights":[1.0965513E-2,-3.1758776E-1,1.7747155E-1,-7.829408E-2,-6.290434E-1,1.5110934E0,4.2771548E-2,-2.2765344E-2,8.702396E-2,-6.40217E-2,-2.5155202E-2,6.630897E-2,1.05679594E-1,1.1585884E-2,-2.1100616E-2],"categories":[],"categories_nodes":[],"categories_segments":[],"categories_sizes":[],"default_left":[0,0,0,0,0,0,0,0,0,0,0,0,0,0,0],"id":43,"left_children":[1,3,5,7,9,11,13,-1,-1,-1,-1,-1,-1,-1,-1],"loss_changes":[6.688625E1,3.0599583E1,1.4569168E2,1.6103989E2,1.4001869E1,5.486511E0,6.4906525E1,0E0,0E0,0E0,0E0,0E0,0E0,0E0,0E0],"parents":[2147483647,0,0,1,1,2,2,3,3,4,4,5,5,6,6],"right_children":[2,4,6,8,10,12,14,-1,-1,-1,-1,-1,-1,-1,-1],"split_conditions":[-5.204464E-1,-5.342103E-1,4.0252823E-1,-1.3762013E0,-8.6111456E-1,3.353836E-1,1.3392668E0,-2.2765344E-2,8.702396E-2,-6.40217E-2,-2.5155202E-2,6.630897E-2,1.05679594E-1,1.1585884E-2,-2.1100616E-2],"split_indices":[16,16,16,16,20,14,16,0,0,0,0,0,0,0,0],"split_type":[0,0,0,0,0,0,0,0,0,0,0,0,0,0,0],"sum_hessian":[1.2206167E3,4.102316E2,8.1038513E2,2.3269878E2,1.775328E2,7.340521E1,7.369799E2,1.9336574E2,3.933305E1,2.7277834E1,1.5025497E2,5.8616302E1,1.4788912E1,5.2432874E2,2.1265117E2],"tree_param":{"num_deleted":"0","num_feature":"32","num_nodes":"15","size_leaf_vector":"1"}},{"base_weights":[1.0359495E-2,2.9066494E-1,-1.9409476E-1,1.7191173E-1,6.384535E-2,-1.04886025E-1,-8.836927E-1,2.5009751E-2,-4.737549E-3,-2.0351503E-2,1.0011424E-2,-5.217396E-2,-2.1809248E-2],"categories":[],"categories_nodes":[],"categories_segments":[],"categories_sizes":[],"default_left":[0,0,0,0,0,0,0,0,0,0,0,0,0],"id":44,"left_children":[1,3,5,7,-1,9,11,-1,-1,-1,-1,-1,-1],"loss_changes":[6.946182E1,5.964981E1,4.3024017E1,4.0088703E1,0E0,5.7397877E1,5.27586E0,0E0,0E0,0E0,0E0,0E0,0E0],"parents":[2147483647,0,0,1,1,2,2,3,3,5,5,6,6],"right_children":[2,4,6,8,-1,10,12,-1,-1,-1,-1,-1,-1],"split_conditions":[-6.087566E-1,-1.1182439E0,1.3392668E0,-1.2027125E0,6.384535E-2,-5.204464E-1,7.65017E-2,2.5009751E-2,-4.737549E-3,-2.0351503E-2,1.0011424E-2,-5.217396E-2,-2.1809248E-2],"split_indices":[19,19,16,4,0,16,13,0,0,0,0,0,0],"split_type":[0,0,0,0,0,0,0,0,0,0,0,0,0],"sum_hessian":[1.2100597E3,5.1018195E2,6.9987775E2,4.564011E2,5.3780857E1,6.207301E2,7.914767E1,2.0417252E2,2.5222859E2,3.1171542E2,3.0901468E2,5.734159E1,2.1806074E1],"tree_param":{"num_deleted":"0","num_feature":"32","num_nodes":"13","size_leaf_vector":"1"}},{"base_weights":[5.204143E-3,1.2527618E-1,-4.4437754E-1,5.745052E-2,1.6222645E0,8.931682E-2,-5.4253584E-1,1.9353542E-2,-4.7670025E-3,7.0450015E-2,1.09506525E-1,-2.9703308E-2,2.2958133E-2,-4.68719E-2,-1.8770423E-2],"categories":[],"categories_nodes":[],"categories_segments":[],"categories_sizes":[],"default_left":[0,0,0,0,0,0,0,0,0,0,0,0,0,0,0],"id":45,"left_children":[1,3,5,7,9,11,13,-1,-1,-1,-1,-1,-1,-1,-1],"loss_changes":[6.496974E1,9.634639E1,1.3338177E1,4.585156E1,1.8954926E0,1.0450542E1,1.379937E1,0E0,0E0,0E0,0E0,0E0,0E0,0E0,0E0],"parents":[2147483647,0,0,1,1,2,2,3,3,4,4,5,5,6,6],"right_children":[2,4,6,8,10,12,14,-1,-1,-1,-1,-1,-1,-1,-1],"split_conditions":[1.5182487E0,-6.167592E-1,-1.1208204E0,-1.0389283E0,3.6522365E-1,-9.648329E-1,-4.57487E-1,1.9353542E-2,-4.7670025E-3,7.0450015E-2,1.09506525E-1,-2.9703308E-2,2.2958133E-2,-4.68719E-2,-1.8770423E-2],"split_indices":[3,3,4,4,14,2,17,0,0,0,0,0,0,0,0],"split_type":[0,0,0,0,0,0,0,0,0,0,0,0,0,0,0],"sum_hessian":[1.2015093E3,9.4882355E2,2.5268571E2,9.086909E2,4.0132652E1,3.926871E1,2.1341699E2,2.8731757E2,6.2137335E2,3.170641E1,8.426244E0,1.3576489E1,2.5692223E1,6.2091953E1,1.5132504E2],"tree_param":{"num_deleted":"0","num_feature":"32","num_nodes":"15","size_leaf_vector":"1"}},{"base_weights":[-4.2664868E-4,1.3158199E-1,-3.989173E-1,8.793451E-2,6.5907516E-2,-2.2510451E-1,-7.0115936E-1,6.7357654E-3,-4.430087E-2,-2.0340184E-2,1.0113708E-1,-4.0406145E-2,-1.5426563E-2],"categories":[],"categories_nodes":[],"categories_segments":[],"categories_sizes":[],"default_left":[0,0,0,0,0,0,0,0,0,0,0,0,0],"id":46,"left_children":[1,3,5,7,-1,9,11,-1,-1,-1,-1,-1,-1],"loss_changes":[6.31329E1,4.6573853E1,1.5530933E1,3.978561E1,0E0,7.8865204E1,4.3100624E0,0E0,0E0,0E0,0E0,0E0,0E0],"parents":[2147483647,0,0,1,1,2,2,3,3,5,5,6,6],"right_children":[2,4,6,8,-1,10,12,-1,-1,-1,-1,-1,-1],"split_conditions":[3.7290835E-1,-7.794755E-1,1.5775905E0,9.2648286E-1,6.5907516E-2,4.7938412E-1,1.3614532E0,6.7357654E-3,-4.430087E-2,-2.0340184E-2,1.0113708E-1,-4.0406145E-2,-1.5426563E-2],"split_indices":[14,14,14,4,0,14,17,0,0,0,0,0,0],"split_type":[0,0,0,0,0,0,0,0,0,0,0,0,0],"sum_hessian":[1.1981512E3,9.005082E2,2.97643E2,8.695946E2,3.0913618E1,1.9007806E2,1.0756496E2,8.3056274E2,3.9031857E1,1.766204E2,1.3457656E1,8.370342E1,2.3861536E1],"tree_param":{"num_deleted":"0","num_feature":"32","num_nodes":"13","size_leaf_vector":"1"}},{"base_weights":[-9.042761E-3,1.6715407E-1,-2.9920813E-1,-1.6799651E-1,3.1117973E-1,-4.2896926E-1,1.0690436E-1,6.908593E-3,-2.5806058E-2,1.8883012E-2,-2.4589965E-2,-9.760176E-3,-3.0494733E-2,1.10983495E-2,-4.9811628E-2],"categories":[],"categories_nodes":[],"categories_segments":[],"categories_sizes":[],"default_left":[0,0,0,0,0,0,0,0,0,0,0,0,0,0,0],"id":47,"left_children":[1,3,5,7,9,11,13,-1,-1,-1,-1,-1,-1,-1,-1],"loss_changes":[6.1429432E1,3.613954E1,2.396733E1,2.4090988E1,2.8118153E1,1.4439316E1,1.427494E1,0E0,0E0,0E0,0E0,0E0,0E0,0E0,0E0],"parents":[2147483647,0,0,1,1,2,2,3,3,4,4,5,5,6,6],"right_children":[2,4,6,8,10,12,14,-1,-1,-1,-1,-1,-1,-1,-1],"split_conditions":[2.3943736E-1,-1.1805099E0,1.0322514E0,-5.056811E-1,1.4670398E0,-6.087566E-1,1.622566E0,6.908593E-3,-2.5806058E-2,1.8883012E-2,-2.4589965E-2,-9.760176E-3,-3.0494733E-2,1.10983495E-2,-4.9811628E-2],"split_indices":[11,7,17,17,19,19,4,0,0,0,0,0,0,0,0],"split_type":[0,0,0,0,0,0,0,0,0,0,0,0,0,0,0],"sum_hessian":[1.1995466E3,7.4660834E2,4.5293832E2,2.243575E2,5.2225085E2,3.4321722E2,1.097211E2,1.19693054E2,1.04664444E2,4.8280774E2,3.9443104E1,1.5064906E2,1.9256816E2,1.0008095E2,9.640151E0],"tree_param":{"num_deleted":"0","num_feature":"32","num_nodes":"15","size_leaf_vector":"1"}},{"base_weights":[-1.8044451E-2,1.7781316E-1,-2.8352264E-1,-1.07027754E-1,4.950696E-1,-4.4644645E-1,-2.9205589E-2,6.733724E-3,-1.936389E-2,2.0331226E-2,6.935028E-2,-1.7525112E-2,-4.1214127E-2,9.841902E-3,-2.1180317E-2],"categories":[],"categories_nodes":[],"categories_segments":[],"categories_sizes":[],"default_left":[0,0,0,0,0,0,0,0,0,0,0,0,0,0,0],"id":48,"left_children":[1,3,5,7,9,11,13,-1,-1,-1,-1,-1,-1,-1,-1],"loss_changes":[6.160536E1,6.1671295E1,2.0827549E1,2.4444847E1,2.4897224E1,1.0822292E1,1.7688433E1,0E0,0E0,0E0,0E0,0E0,0E0,0E0,0E0],"parents":[2147483647,0,0,1,1,2,2,3,3,4,4,5,5,6,6],"right_children":[2,4,6,8,10,12,14,-1,-1,-1,-1,-1,-1,-1,-1],"split_conditions":[-8.980749E-2,-3.882032E-1,1.0182503E0,-9.3386614E-1,-5.757302E-1,1.4670398E0,1.4670398E0,6.733724E-3,-1.936389E-2,2.0331226E-2,6.935028E-2,-1.7525112E-2,-4.1214127E-2,9.841902E-3,-2.1180317E-2],"split_indices":[19,29,17,30,19,19,19,0,0,0,0,0,0,0,0],"split_type":[0,0,0,0,0,0,0,0,0,0,0,0,0,0,0],"sum_hessian":[1.1828417E3,6.808627E2,5.0197903E2,3.5910852E2,3.2175415E2,3.0550626E2,1.964728E2,1.9309381E2,1.6601472E2,2.9405167E2,2.7702507E1,2.4517615E2,6.0330105E1,1.2521119E2,7.1261604E1],"tree_param":{"num_deleted":"0","num_feature":"32","num_nodes":"15","size_leaf_vector":"1"}},{"base_weights":[-6.630589E-3,1.721221E-1,-3.0357262E-1,2.8332022E-1,-2.2952312E-1,-1.9676475E-1,-7.549722E-1,2.7574385E-2,6.337506E-3,-5.698818E-3,-5.00915E-2,-1.2601527E-2,1.024176E-1,-3.037718E-2,-5.4562062E-2],"categories":[],"categories_nodes":[],"categories_segments":[],"categories_sizes":[],"default_left":[0,0,0,0,0,0,0,0,0,0,0,0,0,0,0],"id":49,"left_children":[1,3,5,7,9,11,13,-1,-1,-1,-1,-1,-1,-1,-1],"loss_changes":[6.268831E1,3.2992584E1,2.1247963E1,2.4192219E1,1.4200383E1,4.5212704E1,3.5292892E0,0E0,0E0,0E0,0E0,0E0,0E0,0E0,0E0],"parents":[2147483647,0,0,1,1,2,2,3,3,4,4,5,5,6,6],"right_children":[2,4,6,8,10,12,14,-1,-1,-1,-1,-1,-1,-1,-1],"split_conditions":[2.3850596E-1,1.3815507E0,1.5775905E0,-1.0389283E0,1.4670398E0,4.7938412E-1,1.5816199E0,2.7574385E-2,6.337506E-3,-5.698818E-3,-5.00915E-2,-1.2601527E-2,1.024176E-1,-3.037718E-2,-5.4562062E-2],"split_indices":[11,8,14,4,19,14,4,0,0,0,0,0,0,0,0],"split_type":[0,0,0,0,0,0,0,0,0,0,0,0,0,0,0],"sum_hessian":[1.1790492E3,7.3625806E2,4.427911E2,5.7684845E2,1.5940965E2,3.5922824E2,8.3562874E1,2.117126E2,3.6513583E2,1.3966205E2,1.974761E1,3.5146432E2,7.763904E0,6.0044575E1,2.3518297E1],"tree_param":{"num_deleted":"0","num_feature":"32","num_nodes":"15","size_leaf_vector":"1"}},{"base_weights":[-8.7518655E-3,-3.36722E-1,1.378115E-1,1.306296E-1,-4.565247E-1,1.4696752E0,5.2697573E-2,-6.634907E-3,2.6260918E-2,-1.865912E-2,-4.3978043E-2,6.496894E-2,1.0257973E-1,2.1527832E-2,-4.171776E-3],"categories":[],"categories_nodes":[],"categories_segments":[],"categories_sizes":[],"default_left":[0,0,0,0,0,0,0,0,0,0,0,0,0,0,0],"id":50,"left_children":[1,3,5,7,9,11,13,-1,-1,-1,-1,-1,-1,-1,-1],"loss_changes":[5.639517E1,2.034776E1,9.184735E1,7.8327136E0,9.848312E0,2.1575317E0,3.929619E1,0E0,0E0,0E0,0E0,0E0,0E0,0E0,0E0],"parents":[2147483647,0,0,1,1,2,2,3,3,4,4,5,5,6,6],"right_children":[2,4,6,8,10,12,14,-1,-1,-1,-1,-1,-1,-1,-1],"split_conditions":[-1.1892031E0,-1.2027125E0,8.1738293E-1,-9.882417E-1,1.5775905E0,3.6522365E-1,-1.0389283E0,-6.634907E-3,2.6260918E-2,-1.865912E-2,-4.3978043E-2,6.496894E-2,1.0257973E-1,2.1527832E-2,-4.171776E-3],"split_indices":[15,4,15,18,14,14,4,0,0,0,0,0,0,0,0],"split_type":[0,0,0,0,0,0,0,0,0,0,0,0,0,0,0],"sum_hessian":[1.1712621E3,3.613527E2,8.0990936E2,7.3711815E1,2.8764087E2,4.7671894E1,7.622374E2,4.4607098E1,2.910472E1,2.4187189E2,4.5768986E1,3.938032E1,8.29157E0,2.0130914E2,5.609283E2],"tree_param":{"num_deleted":"0","num_feature":"32","num_nodes":"15","size_leaf_vector":"1"}},{"base_weights":[-1.5393262E-3,-3.1129205E-1,1.310852E-1,-1.7291394E-1,-6.764189E-1,1.4485879E0,5.2470043E-2,-2.8530364E-3,-3.0996257E-2,-3.612422E-2,2.4740314E-2,6.377245E-2,1.0097845E-1,-1.4153698E-2,1.0690778E-2],"categories":[],"categories_nodes":[],"categories_segments":[],"categories_sizes":[],"default_left":[0,0,0,0,0,0,0,0,0,0,0,0,0,0,0],"id":51,"left_children":[1,3,5,7,9,11,13,-1,-1,-1,-1,-1,-1,-1,-1],"loss_changes":[4.755661E1,1.7418304E1,8.38809E1,1.3067893E1,5.485092E0,1.9327469E0,4.1529484E1,0E0,0E0,0E0,0E0,0E0,0E0,0E0,0E0],"parents":[2147483647,0,0,1,1,2,2,3,3,4,4,5,5,6,6],"right_children":[2,4,6,8,10,12,14,-1,-1,-1,-1,-1,-1,-1,-1],"split_conditions":[-1.1892031E0,2.0852286E-1,8.1554884E-1,1.1865762E0,2.4147677E0,3.6522365E-1,-5.204464E-1,-2.8530364E-3,-3.0996257E-2,-3.612422E-2,2.4740314E-2,6.377245E-2,1.0097845E-1,-1.4153698E-2,1.0690778E-2],"split_indices":[15,31,15,9,18,14,16,0,0,0,0,0,0,0,0],"split_type":[0,0,0,0,0,0,0,0,0,0,0,0,0,0,0],"sum_hessian":[1.1556423E3,3.4605725E2,8.0958514E2,2.5201903E2,9.4038216E1,4.4606327E1,7.649788E2,2.0104202E2,5.0977005E1,9.0848206E1,3.1900134E0,3.670886E1,7.89747E0,2.481521E2,5.168267E2],"tree_param":{"num_deleted":"0","num_feature":"32","num_nodes":"15","size_leaf_vector":"1"}},{"base_weights":[1.805319E-3,1.0343445E-1,-3.921832E-1,3.835932E-2,1.5967362E0,-1.9369817E-1,-6.520961E-1,1.3477743E-2,-7.8344E-3,6.8186246E-2,1.1096205E-1,-2.8502354E-2,1.131624E-3,-2.4879364E-2,-4.364861E-2],"categories":[],"categories_nodes":[],"categories_segments":[],"categories_sizes":[],"default_left":[0,0,0,0,0,0,0,0,0,0,0,0,0,0,0],"id":52,"left_children":[1,3,5,7,9,11,13,-1,-1,-1,-1,-1,-1,-1,-1],"loss_changes":[4.6568096E1,8.978078E1,1.2176811E1,4.003794E1,2.56987E0,1.1137866E1,3.0752907E0,0E0,0E0,0E0,0E0,0E0,0E0,0E0,0E0],"parents":[2147483647,0,0,1,1,2,2,3,3,4,4,5,5,6,6],"right_children":[2,4,6,8,10,12,14,-1,-1,-1,-1,-1,-1,-1,-1],"split_conditions":[1.5157635E0,-6.167592E-1,6.6615485E-2,-6.087566E-1,3.353836E-1,-6.336448E-1,4.0252823E-1,1.3477743E-2,-7.8344E-3,6.8186246E-2,1.1096205E-1,-2.8502354E-2,1.131624E-3,-2.4879364E-2,-4.364861E-2],"split_indices":[3,3,4,19,14,17,16,0,0,0,0,0,0,0,0],"split_type":[0,0,0,0,0,0,0,0,0,0,0,0,0,0,0],"sum_hessian":[1.1610055E3,9.2352124E2,2.3748433E2,8.8593945E2,3.7581795E1,1.3564381E2,1.01840515E2,4.0522812E2,4.807113E2,2.9667562E1,7.914234E0,4.8913784E1,8.6730034E1,6.1836807E1,4.0003708E1],"tree_param":{"num_deleted":"0","num_feature":"32","num_nodes":"15","size_leaf_vector":"1"}},{"base_weights":[-3.1563551E-3,1.5552124E-1,-2.696295E-1,-3.9906114E-1,2.4265374E-1,-4.0260437E-1,1.9297276E-2,1.8480299E-2,-2.5169766E-2,7.465013E-2,9.124831E-3,6.171591E-3,-2.6464248E-2,2.1244904E-2,-1.5399667E-2],"categories":[],"categories_nodes":[],"categories_segments":[],"categories_sizes":[],"default_left":[0,0,0,0,0,0,0,0,0,0,0,0,0,0,0],"id":53,"left_children":[1,3,5,7,9,11,13,-1,-1,-1,-1,-1,-1,-1,-1],"loss_changes":[4.9509037E1,3.5560173E1,1.6797396E1,8.20803E0,4.748059E1,2.0011173E1,1.854168E1,0E0,0E0,0E0,0E0,0E0,0E0,0E0,0E0],"parents":[2147483647,0,0,1,1,2,2,3,3,4,4,5,5,6,6],"right_children":[2,4,6,8,10,12,14,-1,-1,-1,-1,-1,-1,-1,-1],"split_conditions":[2.3943736E-1,-1.3762013E0,4.552258E-1,-1.0412208E0,-5.342103E-1,-1.2027125E0,1.0788128E0,1.8480299E-2,-2.5169766E-2,7.465013E-2,9.124831E-3,6.171591E-3,-2.6464248E-2,2.1244904E-2,-1.5399667E-2],"split_indices":[11,16,29,4,16,4,9,0,0,0,0,0,0,0,0],"split_type":[0,0,0,0,0,0,0,0,0,0,0,0,0,0,0],"sum_hessian":[1.1688964E3,7.328941E2,4.3600232E2,9.902679E1,6.338673E2,2.9831378E2,1.3768854E2,1.153103E1,8.749576E1,2.8003525E1,6.058638E2,5.79023E1,2.4041147E2,6.1355003E1,7.633353E1],"tree_param":{"num_deleted":"0","num_feature":"32","num_nodes":"15","size_leaf_vector":"1"}},{"base_weights":[5.9370873E-3,-2.655547E-1,1.4472038E-1,-4.083896E-2,-5.632273E-1,1.4772618E0,2.0776838E-2,-1.888032E-2,8.306899E-2,-3.5469823E-2,3.255477E-3,6.4994164E-2,9.398282E-2,2.778846E-2,-4.971496E-3],"categories":[],"categories_nodes":[],"categories_segments":[],"categories_sizes":[],"default_left":[0,0,0,0,0,0,0,0,0,0,0,0,0,0,0],"id":54,"left_children":[1,3,5,7,9,11,13,-1,-1,-1,-1,-1,-1,-1,-1],"loss_changes":[4.332297E1,2.599461E1,1.256286E2,1.2829869E2,1.5405792E1,2.1769257E0,4.4885765E1,0E0,0E0,0E0,0E0,0E0,0E0,0E0,0E0],"parents":[2147483647,0,0,1,1,2,2,3,3,4,4,5,5,6,6],"right_children":[2,4,6,8,10,12,14,-1,-1,-1,-1,-1,-1,-1,-1],"split_conditions":[-5.204464E-1,-5.342103E-1,4.0252823E-1,-1.3762013E0,-4.3181723E-1,2.4265128E-1,-1.2436585E0,-1.888032E-2,8.306899E-2,-3.5469823E-2,3.255477E-3,6.4994164E-2,9.398282E-2,2.778846E-2,-4.971496E-3],"split_indices":[16,16,16,16,1,8,4,0,0,0,0,0,0,0,0],"split_type":[0,0,0,0,0,0,0,0,0,0,0,0,0,0,0],"sum_hessian":[1.1477854E3,3.8795108E2,7.5983435E2,2.217142E2,1.6623686E2,6.3730995E1,6.9610333E2,1.857446E2,3.59696E1,1.3475906E2,3.1477808E1,4.7168953E1,1.6562042E1,1.2704651E2,5.690568E2],"tree_param":{"num_deleted":"0","num_feature":"32","num_nodes":"15","size_leaf_vector":"1"}},{"base_weights":[7.920769E-3,6.864196E-2,-6.6296744E-1,4.2000454E-2,1.8989218E0,-7.8646517E-1,-2.195051E-1,1.6203688E-2,-4.432557E-3,1.1847886E-1,7.048803E-2,-2.5178535E-2,-4.228758E-2,5.5910595E-2,-3.1202218E-2],"categories":[],"categories_nodes":[],"categories_segments":[],"categories_sizes":[],"default_left":[0,0,0,0,0,0,0,0,0,0,0,0,0,0,0],"id":55,"left_children":[1,3,5,7,9,11,13,-1,-1,-1,-1,-1,-1,-1,-1],"loss_changes":[4.642676E1,5.087398E1,5.007725E0,3.802415E1,1.05846405E-1,8.084793E-1,1.2598502E1,0E0,0E0,0E0,0E0,0E0,0E0,0E0,0E0],"parents":[2147483647,0,0,1,1,2,2,3,3,4,4,5,5,6,6],"right_children":[2,4,6,8,10,12,14,-1,-1,-1,-1,-1,-1,-1,-1],"split_conditions":[1.5775905E0,4.7938412E-1,1.3614532E0,-1.0389283E0,3.900649E-1,-1.101479E0,1.0788128E0,1.6203688E-2,-4.432557E-3,1.1847886E-1,7.048803E-2,-2.5178535E-2,-4.228758E-2,5.5910595E-2,-3.1202218E-2],"split_indices":[14,14,17,4,17,13,9,0,0,0,0,0,0,0,0],"split_type":[0,0,0,0,0,0,0,0,0,0,0,0,0,0,0],"sum_hessian":[1.1375497E3,1.04396E3,9.358973E1,1.0299904E3,1.3969567E1,7.259862E1,2.0991112E1,3.2558362E2,7.0440674E2,5.1603155E0,8.809253E0,1.4223369E1,5.837525E1,4.464358E0,1.6526754E1],"tree_param":{"num_deleted":"0","num_feature":"32","num_nodes":"15","size_leaf_vector":"1"}},{"base_weights":[-1.3471999E-2,7.557786E-2,-4.247089E-1,-2.0918885E-4,6.817202E-2,2.247616E-1,-6.537026E-1,-1.1696144E-2,8.638358E-3,5.6374236E-3,6.1873563E-2,-3.632947E-2,6.273832E-3],"categories":[],"categories_nodes":[],"categories_segments":[],"categories_sizes":[],"default_left":[0,0,0,0,0,0,0,0,0,0,0,0,0],"id":56,"left_children":[1,3,5,7,-1,9,11,-1,-1,-1,-1,-1,-1],"loss_changes":[4.1985737E1,9.19972E1,3.0497238E1,3.606789E1,0E0,5.9792824E0,8.674133E0,0E0,0E0,0E0,0E0,0E0,0E0],"parents":[2147483647,0,0,1,1,2,2,3,3,5,5,6,6],"right_children":[2,4,6,8,-1,10,12,-1,-1,-1,-1,-1,-1],"split_conditions":[1.3392668E0,4.4457352E-1,-1.2436585E0,-5.204464E-1,6.817202E-2,-1.2792056E0,-4.3181723E-1,-1.1696144E-2,8.638358E-3,5.6374236E-3,6.1873563E-2,-3.632947E-2,6.273832E-3],"split_indices":[16,16,4,16,0,4,1,0,0,0,0,0,0],"split_type":[0,0,0,0,0,0,0,0,0,0,0,0,0],"sum_hessian":[1.1446299E3,9.415594E2,2.0307047E2,8.90175E2,5.1384426E1,5.2940228E1,1.5013025E2,3.784658E2,5.1170917E2,4.866847E1,4.271757E0,1.3734964E2,1.2780602E1],"tree_param":{"num_deleted":"0","num_feature":"32","num_nodes":"13","size_leaf_vector":"1"}},{"base_weights":[-1.2503669E-3,8.569263E-2,-3.9620635E-1,1.8267835E-2,6.6952534E-2,6.290289E-2,-6.284201E-1,-1.1780224E-2,1.0419638E-2,-6.969648E-5,5.1323976E-2,-3.7856624E-2,-9.542438E-3],"categories":[],"categories_nodes":[],"categories_segments":[],"categories_sizes":[],"default_left":[0,0,0,0,0,0,0,0,0,0,0,0,0],"id":57,"left_children":[1,3,5,7,-1,9,11,-1,-1,-1,-1,-1,-1],"loss_changes":[3.8693077E1,7.8020164E1,2.171315E1,4.239861E1,0E0,4.2884274E0,7.4644356E0,0E0,0E0,0E0,0E0,0E0,0E0],"parents":[2147483647,0,0,1,1,2,2,3,3,5,5,6,6],"right_children":[2,4,6,8,-1,10,12,-1,-1,-1,-1,-1,-1],"split_conditions":[1.3392668E0,4.4457352E-1,-9.74551E-1,-5.204464E-1,6.6952534E-2,-9.781444E-1,-7.645825E-1,-1.1780224E-2,1.0419638E-2,-6.969648E-5,5.1323976E-2,-3.7856624E-2,-9.542438E-3],"split_indices":[16,16,18,16,0,18,27,0,0,0,0,0,0],"split_type":[0,0,0,0,0,0,0,0,0,0,0,0,0],"sum_hessian":[1.1248193E3,9.2252405E2,2.022953E2,8.7639276E2,4.6131252E1,6.8195435E1,1.3409987E2,3.7517944E2,5.0121335E2,6.486568E1,3.3297555E0,1.030556E2,3.1044273E1],"tree_param":{"num_deleted":"0","num_feature":"32","num_nodes":"13","size_leaf_vector":"1"}},{"base_weights":[-3.4702758E-3,1.386023E-1,-2.3871543E-1,-1.846763E-1,2.7531835E-1,-1.5420787E-1,-7.025079E-1,3.0847955E-3,-3.659818E-2,6.301251E-2,1.1336665E-2,-1.0487517E-2,9.11962E-2,-2.7257591E-2,-5.0581068E-2],"categories":[],"categories_nodes":[],"categories_segments":[],"categories_sizes":[],"default_left":[0,0,0,0,0,0,0,0,0,0,0,0,0,0,0],"id":58,"left_children":[1,3,5,7,9,11,13,-1,-1,-1,-1,-1,-1,-1,-1],"loss_changes":[3.7234894E1,3.0750881E1,1.6332956E1,2.7962463E1,2.3093616E1,3.950878E1,2.579647E0,0E0,0E0,0E0,0E0,0E0,0E0,0E0,0E0],"parents":[2147483647,0,0,1,1,2,2,3,3,4,4,5,5,6,6],"right_children":[2,4,6,8,10,12,14,-1,-1,-1,-1,-1,-1,-1,-1],"split_conditions":[2.4265128E-1,-1.1805099E0,1.5775905E0,-3.527894E-1,1.7461832E-1,4.7938412E-1,1.5816199E0,3.0847955E-3,-3.659818E-2,6.301251E-2,1.1336665E-2,-1.0487517E-2,9.11962E-2,-2.7257591E-2,-5.0581068E-2],"split_indices":[8,7,14,17,7,14,4,0,0,0,0,0,0,0,0],"split_type":[0,0,0,0,0,0,0,0,0,0,0,0,0,0,0],"sum_hessian":[1.1120973E3,6.936121E2,4.184852E2,2.0604578E2,4.875663E2,3.5511267E2,6.337253E1,1.4269574E2,6.3350044E1,2.1747858E1,4.6581845E2,3.462836E2,8.829069E0,4.3826153E1,1.9546377E1],"tree_param":{"num_deleted":"0","num_feature":"32","num_nodes":"15","size_leaf_vector":"1"}},{"base_weights":[8.17474E-3,1.549646E-1,-1.9539426E-1,8.712473E-2,7.094555E-2,-5.08898E-1,-2.3805005E-3,-4.4704764E-3,1.785306E-2,-1.604505E-2,-3.496433E-2,8.877532E-2,-1.7241553E-3],"categories":[],"categories_nodes":[],"categories_segments":[],"categories_sizes":[],"default_left":[0,0,0,0,0,0,0,0,0,0,0,0,0],"id":59,"left_children":[1,3,5,7,-1,9,11,-1,-1,-1,-1,-1,-1],"loss_changes":[3.3669617E1,5.600987E1,2.8565535E1,2.9689606E1,0E0,6.214382E0,1.679574E1,0E0,0E0,0E0,0E0,0E0,0E0],"parents":[2147483647,0,0,1,1,2,2,3,3,5,5,6,6],"right_children":[2,4,6,8,-1,10,12,-1,-1,-1,-1,-1,-1],"split_conditions":[-8.980749E-2,-5.757302E-1,-7.792329E-1,-9.564719E-1,7.094555E-2,9.2389697E-1,7.8672093E-1,-4.4704764E-3,1.785306E-2,-1.604505E-2,-3.496433E-2,8.877532E-2,-1.7241553E-3],"split_indices":[19,19,28,6,0,0,13,0,0,0,0,0,0],"split_type":[0,0,0,0,0,0,0,0,0,0,0,0,0],"sum_hessian":[1.1247443E3,6.5364886E2,4.7109537E2,6.213671E2,3.2281742E1,1.7889215E2,2.9220322E2,3.7608328E2,2.4528384E2,9.1362656E1,8.7529495E1,4.2194057E0,2.879838E2],"tree_param":{"num_deleted":"0","num_feature":"32","num_nodes":"13","size_leaf_vector":"1"}},{"base_weights":[-8.964367E-3,9.323459E-2,-4.0818432E-1,3.082212E-2,1.5705363E0,-8.173898E-1,-2.5375924E-1,4.595082E-3,-3.1132568E-2,6.729817E-2,1.05405346E-1,-1.5690448E-2,-5.3998232E-2,-1.6558593E-3,-2.9693455E-2],"categories":[],"categories_nodes":[],"categories_segments":[],"categories_sizes":[],"default_left":[0,0,0,0,0,0,0,0,0,0,0,0,0,0,0],"id":60,"left_children":[1,3,5,7,9,11,13,-1,-1,-1,-1,-1,-1,-1,-1],"loss_changes":[4.6201416E1,8.308643E1,1.4377155E1,3.4627823E1,1.572464E0,7.962982E0,1.2663609E1,0E0,0E0,0E0,0E0,0E0,0E0,0E0,0E0],"parents":[2147483647,0,0,1,1,2,2,3,3,4,4,5,5,6,6],"right_children":[2,4,6,8,10,12,14,-1,-1,-1,-1,-1,-1,-1,-1],"split_conditions":[1.5182487E0,-6.167592E-1,-6.336448E-1,1.4670398E0,3.6522365E-1,-1.489506E0,5.271381E-1,4.595082E-3,-3.1132568E-2,6.729817E-2,1.05405346E-1,-1.5690448E-2,-5.3998232E-2,-1.6558593E-3,-2.9693455E-2],"split_indices":[3,3,17,19,14,17,18,0,0,0,0,0,0,0,0],"split_type":[0,0,0,0,0,0,0,0,0,0,0,0,0,0,0],"sum_hessian":[1.1304586E3,9.0065936E2,2.297993E2,8.651305E2,3.5528835E1,6.178482E1,1.6801447E2,7.9196564E2,7.316488E1,2.7531282E1,7.9975543E0,2.1927038E1,3.9857784E1,1.025705E2,6.544396E1],"tree_param":{"num_deleted":"0","num_feature":"32","num_nodes":"15","size_leaf_vector":"1"}},{"base_weights":[2.0347903E-3,-2.851966E-1,1.2673534E-1,-1.6079214E-1,-6.329982E-1,1.401633E0,4.9382538E-2,-4.5934666E-2,-6.3148565E-3,-3.583617E-2,3.0769466E-3,6.2149394E-2,8.92378E-2,9.606765E-3,-1.3452666E-2],"categories":[],"categories_nodes":[],"categories_segments":[],"categories_sizes":[],"default_left":[0,0,0,0,0,0,0,0,0,0,0,0,0,0,0],"id":61,"left_children":[1,3,5,7,9,11,13,-1,-1,-1,-1,-1,-1,-1,-1],"loss_changes":[4.0049885E1,1.4544058E1,7.681772E1,6.437034E0,5.2099495E0,4.9007416E-1,3.3512608E1,0E0,0E0,0E0,0E0,0E0,0E0,0E0,0E0],"parents":[2147483647,0,0,1,1,2,2,3,3,4,4,5,5,6,6],"right_children":[2,4,6,8,10,12,14,-1,-1,-1,-1,-1,-1,-1,-1],"split_conditions":[-1.1892031E0,2.0852286E-1,8.1554884E-1,-1.5077866E0,1.3614532E0,-7.3817395E-2,1.9601661E-1,-4.5934666E-2,-6.3148565E-3,-3.583617E-2,3.0769466E-3,6.2149394E-2,8.92378E-2,9.606765E-3,-1.3452666E-2],"split_indices":[15,31,15,17,17,31,11,0,0,0,0,0,0,0,0],"split_type":[0,0,0,0,0,0,0,0,0,0,0,0,0,0,0],"sum_hessian":[1.1161433E3,3.3749066E2,7.786526E2,2.4965453E2,8.783613E1,4.356196E1,7.3509064E2,9.752237E0,2.3990228E2,7.835824E1,9.477893E0,3.3807262E1,9.754696E0,5.0783023E2,2.272604E2],"tree_param":{"num_deleted":"0","num_feature":"32","num_nodes":"15","size_leaf_vector":"1"}},{"base_weights":[-1.0208234E-2,8.7303974E-2,-3.8915187E-1,2.7287358E-2,1.495513E0,-2.1944933E-1,-5.12497E-1,4.2382623E-3,-2.8459335E-2,6.511988E-2,9.7602315E-2,-2.3147894E-2,-1.6604454E-3,-1.5258742E-2,-3.5608023E-2],"categories":[],"categories_nodes":[],"categories_segments":[],"categories_sizes":[],"default_left":[0,0,0,0,0,0,0,0,0,0,0,0,0,0,0],"id":62,"left_children":[1,3,5,7,9,11,13,-1,-1,-1,-1,-1,-1,-1,-1],"loss_changes":[4.1114765E1,7.475836E1,4.6540527E0,2.91853E1,6.4554596E-1,4.4106717E0,5.210327E0,0E0,0E0,0E0,0E0,0E0,0E0,0E0,0E0],"parents":[2147483647,0,0,1,1,2,2,3,3,4,4,5,5,6,6],"right_children":[2,4,6,8,10,12,14,-1,-1,-1,-1,-1,-1,-1,-1],"split_conditions":[1.5182487E0,-6.167592E-1,9.5823534E-2,1.4670398E0,3.353836E-1,-1.0218596E0,9.649896E-1,4.2382623E-3,-2.8459335E-2,6.511988E-2,9.7602315E-2,-2.3147894E-2,-1.6604454E-3,-1.5258742E-2,-3.5608023E-2],"split_indices":[3,3,9,19,14,0,0,0,0,0,0,0,0,0,0],"split_type":[0,0,0,0,0,0,0,0,0,0,0,0,0,0,0],"sum_hessian":[1.1107451E3,8.8403033E2,2.2671475E2,8.488715E2,3.5158775E1,9.659505E1,1.301197E2,7.7504407E2,7.382751E1,2.741494E1,7.7438345E0,4.1217514E1,5.5377537E1,6.507598E1,6.504372E1],"tree_param":{"num_deleted":"0","num_feature":"32","num_nodes":"15","size_leaf_vector":"1"}},{"base_weights":[4.717706E-3,-2.6026747E-1,1.12626545E-1,1.07310615E-1,-4.569753E-1,7.1952336E-2,5.774758E-2,-1.6238562E-5,3.2407846E-2,-2.7619598E-3,-3.2256555E-2,-1.4515236E-2,9.198803E-3],"categories":[],"categories_nodes":[],"categories_segments":[],"categories_sizes":[],"default_left":[0,0,0,0,0,0,0,0,0,0,0,0,0],"id":63,"left_children":[1,3,5,7,9,-1,11,-1,-1,-1,-1,-1,-1],"loss_changes":[3.1554853E1,2.3139772E1,5.69982E1,6.527994E0,1.57031975E1,0E0,3.3181973E1,0E0,0E0,0E0,0E0,0E0,0E0],"parents":[2147483647,0,0,1,1,2,2,3,3,4,4,6,6],"right_children":[2,4,6,8,10,-1,12,-1,-1,-1,-1,-1,-1],"split_conditions":[-1.1805099E0,-8.74808E-1,1.7461832E-1,-9.862697E-1,3.2957345E-1,7.1952336E-2,-1.1892031E0,-1.6238562E-5,3.2407846E-2,-2.7619598E-3,-3.2256555E-2,-1.4515236E-2,9.198803E-3],"split_indices":[7,18,7,10,5,0,15,0,0,0,0,0,0],"split_type":[0,0,0,0,0,0,0,0,0,0,0,0,0],"sum_hessian":[1.1015137E3,3.183497E2,7.8316394E2,1.11133865E2,2.0721584E2,3.0112999E1,7.530509E2,9.352132E1,1.7612547E1,6.650754E1,1.4070828E2,2.0007643E2,5.529745E2],"tree_param":{"num_deleted":"0","num_feature":"32","num_nodes":"13","size_leaf_vector":"1"}},{"base_weights":[-1.0031996E-2,-2.6816747E-1,1.0200944E-1,-5.185664E-2,-3.897277E-1,1.361877E0,2.9855942E-2,1.1491579E-3,-4.1487034E-2,-2.6083007E-2,-6.4045186E-3,6.069522E-2,8.7837145E-2,8.431599E-3,-1.4491044E-2],"categories":[],"categories_nodes":[],"categories_segments":[],"categories_sizes":[],"default_left":[0,0,0,0,0,0,0,0,0,0,0,0,0,0,0],"id":64,"left_children":[1,3,5,7,9,11,13,-1,-1,-1,-1,-1,-1,-1,-1],"loss_changes":[3.1725079E1,8.7095375E0,6.949921E1,7.0399833E0,7.264744E0,2.8736877E-1,3.219319E1,0E0,0E0,0E0,0E0,0E0,0E0,0E0,0E0],"parents":[2147483647,0,0,1,1,2,2,3,3,4,4,5,5,6,6],"right_children":[2,4,6,8,10,12,14,-1,-1,-1,-1,-1,-1,-1,-1],"split_conditions":[-1.1892031E0,-8.967698E-1,8.1738293E-1,8.4277564E-1,-6.2106675E-1,3.6522365E-1,2.1126528E-1,1.1491579E-3,-4.1487034E-2,-2.6083007E-2,-6.4045186E-3,6.069522E-2,8.7837145E-2,8.431599E-3,-1.4491044E-2],"split_indices":[15,30,15,9,23,14,8,0,0,0,0,0,0,0,0],"split_type":[0,0,0,0,0,0,0,0,0,0,0,0,0,0,0],"sum_hessian":[1.0949778E3,3.3099515E2,7.639826E2,1.1959968E2,2.1139546E2,4.04155E1,7.2356714E2,1.0998823E2,9.611452E0,1.398708E2,7.152465E1,3.2362244E1,8.053256E0,5.048691E2,2.1869801E2],"tree_param":{"num_deleted":"0","num_feature":"32","num_nodes":"15","size_leaf_vector":"1"}},{"base_weights":[-7.597871E-3,-2.9510978E-1,1.08258225E-1,1.8545816E-2,-4.6799472E-1,6.888037E-2,5.6228396E-2,7.0187277E-3,-4.4208076E-2,-4.5074966E-2,-1.8439367E-2,7.4761803E-3,-1.652714E-2],"categories":[],"categories_nodes":[],"categories_segments":[],"categories_sizes":[],"default_left":[0,0,0,0,0,0,0,0,0,0,0,0,0],"id":65,"left_children":[1,3,5,7,9,-1,11,-1,-1,-1,-1,-1,-1],"loss_changes":[3.677635E1,1.7204062E1,5.1899193E1,1.2621756E1,8.460884E0,0E0,2.736689E1,0E0,0E0,0E0,0E0,0E0,0E0],"parents":[2147483647,0,0,1,1,2,2,3,3,4,4,6,6],"right_children":[2,4,6,8,10,-1,12,-1,-1,-1,-1,-1,-1],"split_conditions":[-1.1805099E0,-8.74808E-1,1.7461832E-1,-3.1789023E-1,-1.1182439E0,6.888037E-2,1.5315833E0,7.0187277E-3,-4.4208076E-2,-4.5074966E-2,-1.8439367E-2,7.4761803E-3,-1.652714E-2],"split_indices":[7,18,7,17,19,0,7,0,0,0,0,0,0],"split_type":[0,0,0,0,0,0,0,0,0,0,0,0,0],"sum_hessian":[1.1021039E3,3.161039E2,7.86E2,1.1264003E2,2.0346388E2,2.9945889E1,7.5605414E2,9.998996E1,1.2650077E1,3.638518E1,1.670787E2,6.0961816E2,1.4643594E2],"tree_param":{"num_deleted":"0","num_feature":"32","num_nodes":"13","size_leaf_vector":"1"}},{"base_weights":[-1.5002847E-2,6.006359E-2,-3.5828298E-1,-2.7949596E-3,6.553256E-2,2.1357995E-1,-5.804271E-1,-9.943339E-3,7.1858116E-3,4.8371465E-3,6.352963E-2,-3.3960005E-3,-3.2393284E-2],"categories":[],"categories_nodes":[],"categories_segments":[],"categories_sizes":[],"default_left":[0,0,0,0,0,0,0,0,0,0,0,0,0],"id":66,"left_children":[1,3,5,7,-1,9,11,-1,-1,-1,-1,-1,-1],"loss_changes":[2.8422024E1,7.1163284E1,2.5265005E1,2.4816807E1,0E0,6.805333E0,4.8917236E0,0E0,0E0,0E0,0E0,0E0,0E0],"parents":[2147483647,0,0,1,1,2,2,3,3,5,5,6,6],"right_children":[2,4,6,8,-1,10,12,-1,-1,-1,-1,-1,-1],"split_conditions":[1.3392668E0,4.4457352E-1,-1.2436585E0,-5.204464E-1,6.553256E-2,-1.2792056E0,3.2957345E-1,-9.943339E-3,7.1858116E-3,4.8371465E-3,6.352963E-2,-3.3960005E-3,-3.2393284E-2],"split_indices":[16,16,4,16,0,4,5,0,0,0,0,0,0],"split_type":[0,0,0,0,0,0,0,0,0,0,0,0,0],"sum_hessian":[1.1011268E3,9.0422205E2,1.9690482E2,8.618981E2,4.2324E1,5.5100037E1,1.4180478E2,3.684519E2,4.9344617E2,5.0598633E1,4.501402E0,1.672306E1,1.25081726E2],"tree_param":{"num_deleted":"0","num_feature":"32","num_nodes":"13","size_leaf_vector":"1"}},{"base_weights":[-1.8350135E-3,2.299354E-1,-9.444428E-2,2.468307E-2,5.013647E-1,-3.778227E-1,5.803371E-2,-1.4302023E-2,1.1289126E-2,3.049089E-2,-3.051858E-3,-6.494163E-2,-1.6615769E-2,8.1650905E-2,8.367858E-4],"categories":[],"categories_nodes":[],"categories_segments":[],"categories_sizes":[],"default_left":[0,0,0,0,0,0,0,0,0,0,0,0,0,0,0],"id":67,"left_children":[1,3,5,7,9,11,13,-1,-1,-1,-1,-1,-1,-1,-1],"loss_changes":[2.3516924E1,1.7414398E1,3.3846985E1,1.1260056E1,8.249298E0,1.1052155E1,3.3134018E1,0E0,0E0,0E0,0E0,0E0,0E0,0E0,0E0],"parents":[2147483647,0,0,1,1,2,2,3,3,4,4,5,5,6,6],"right_children":[2,4,6,8,10,12,14,-1,-1,-1,-1,-1,-1,-1,-1],"split_conditions":[-1.0389283E0,4.6058536E-2,-9.564719E-1,-1.0218596E0,4.1992423E-1,-1.0367516E0,9.528816E-1,-1.4302023E-2,1.1289126E-2,3.049089E-2,-3.051858E-3,-6.494163E-2,-1.6615769E-2,8.1650905E-2,8.367858E-4],"split_indices":[4,17,6,0,9,4,22,0,0,0,0,0,0,0,0],"split_type":[0,0,0,0,0,0,0,0,0,0,0,0,0,0,0],"sum_hessian":[1.0936287E3,3.1180383E2,7.818248E2,1.7816673E2,1.3363708E2,2.7299298E2,5.0883185E2,6.983722E1,1.0832952E2,1.1196211E2,2.167498E1,1.1556806E1,2.614362E2,1.2016474E1,4.9681537E2],"tree_param":{"num_deleted":"0","num_feature":"32","num_nodes":"15","size_leaf_vector":"1"}},{"base_weights":[1.5177073E-2,-2.2007477E-1,1.1682395E-1,-1.4941856E-1,-8.038962E-1,1.3582133E0,4.717635E-2,-8.252449E-3,8.473926E-2,-3.954991E-3,-4.623331E-2,6.045735E-2,8.702852E-2,6.2968577E-3,-1.5136205E-2],"categories":[],"categories_nodes":[],"categories_segments":[],"categories_sizes":[],"default_left":[0,0,0,0,0,0,0,0,0,0,0,0,0,0,0],"id":68,"left_children":[1,3,5,7,9,11,13,-1,-1,-1,-1,-1,-1,-1,-1],"loss_changes":[2.6109478E1,1.3470074E1,6.5847755E1,8.786625E0,3.0202103E0,2.0161438E-1,1.9959524E1,0E0,0E0,0E0,0E0,0E0,0E0,0E0,0E0],"parents":[2147483647,0,0,1,1,2,2,3,3,4,4,5,5,6,6],"right_children":[2,4,6,8,10,12,14,-1,-1,-1,-1,-1,-1,-1,-1],"split_conditions":[-1.1892031E0,1.5775905E0,8.1738293E-1,4.7938412E-1,-1.101479E0,3.6522365E-1,1.5157635E0,-8.252449E-3,8.473926E-2,-3.954991E-3,-4.623331E-2,6.045735E-2,8.702852E-2,6.2968577E-3,-1.5136205E-2],"split_indices":[15,14,15,14,13,14,3,0,0,0,0,0,0,0,0],"split_type":[0,0,0,0,0,0,0,0,0,0,0,0,0,0,0],"sum_hessian":[1.0897953E3,3.2845438E2,7.6134094E2,2.941154E2,3.4338985E1,3.9462654E1,7.2187823E2,2.9254645E2,1.5689534E0,5.140922E0,2.9198065E1,3.1388021E1,8.074635E0,5.897652E2,1.3211305E2],"tree_param":{"num_deleted":"0","num_feature":"32","num_nodes":"15","size_leaf_vector":"1"}},{"base_weights":[-7.2713657E-3,-2.5881398E-1,9.597243E-2,1.2983407E-1,-4.5604587E-1,6.912056E-2,4.235849E-2,1.47257345E-2,-3.747352E-2,-7.113535E-3,-3.147907E-2,9.439363E-3,-1.01515185E-2],"categories":[],"categories_nodes":[],"categories_segments":[],"categories_sizes":[],"default_left":[0,0,0,0,0,0,0,0,0,0,0,0,0],"id":69,"left_children":[1,3,5,7,9,-1,11,-1,-1,-1,-1,-1,-1],"loss_changes":[2.8277279E1,2.434667E1,5.318934E1,1.5778826E1,1.1367161E1,0E0,2.6706188E1,0E0,0E0,0E0,0E0,0E0,0E0],"parents":[2147483647,0,0,1,1,2,2,3,3,4,4,6,6],"right_children":[2,4,6,8,10,-1,12,-1,-1,-1,-1,-1,-1],"split_conditions":[-1.1805099E0,3.2957345E-1,1.7087026E-1,9.3624E-1,-8.74808E-1,6.912056E-2,2.4774E-1,1.47257345E-2,-3.747352E-2,-7.113535E-3,-3.147907E-2,9.439363E-3,-1.01515185E-2],"split_indices":[7,21,7,19,18,0,8,0,0,0,0,0,0],"split_type":[0,0,0,0,0,0,0,0,0,0,0,0,0],"sum_hessian":[1.0868787E3,3.1584613E2,7.7103253E2,1.0644216E2,2.0940396E2,2.9856508E1,7.41176E2,9.021188E1,1.623028E1,7.52186E1,1.3418536E2,4.643307E2,2.7684534E2],"tree_param":{"num_deleted":"0","num_feature":"32","num_nodes":"13","size_leaf_vector":"1"}},{"base_weights":[-1.0131114E-2,6.466141E-2,-3.480509E-1,6.52278E-3,6.404913E-2,1.9501376E-1,-5.6385124E-1,1.7626655E-3,-4.11265E-2,3.98369E-3,6.1433908E-2,-3.1430848E-2,7.405435E-3],"categories":[],"categories_nodes":[],"categories_segments":[],"categories_sizes":[],"default_left":[0,0,0,0,0,0,0,0,0,0,0,0,0],"id":70,"left_children":[1,3,5,7,-1,9,11,-1,-1,-1,-1,-1,-1],"loss_changes":[2.7359722E1,6.2678303E1,2.3100224E1,2.020456E1,0E0,6.641695E0,6.5782814E0,0E0,0E0,0E0,0E0,0E0,0E0],"parents":[2147483647,0,0,1,1,2,2,3,3,5,5,6,6],"right_children":[2,4,6,8,-1,10,12,-1,-1,-1,-1,-1,-1],"split_conditions":[1.3392668E0,4.4457352E-1,-1.2436585E0,1.5816199E0,6.404913E-2,-1.2792056E0,-4.3181723E-1,1.7626655E-3,-4.11265E-2,3.98369E-3,6.1433908E-2,-3.1430848E-2,7.405435E-3],"split_indices":[16,16,4,4,0,4,1,0,0,0,0,0,0],"split_type":[0,0,0,0,0,0,0,0,0,0,0,0,0],"sum_hessian":[1.0806394E3,8.854659E2,1.9517346E2,8.46032E2,3.943391E1,5.552936E1,1.396441E2,8.186205E2,2.7411524E1,5.092414E1,4.6052194E0,1.2810747E2,1.1536642E1],"tree_param":{"num_deleted":"0","num_feature":"32","num_nodes":"13","size_leaf_vector":"1"}},{"base_weights":[2.2071525E-3,-2.3553142E-1,9.832524E-2,-1.02397054E-1,-7.7025753E-1,6.7285135E-2,4.888967E-2,-1.5064168E-2,7.944024E-3,-1.4232169E-2,-4.143899E-2,-5.383804E-3,1.1509832E-2],"categories":[],"categories_nodes":[],"categories_segments":[],"categories_sizes":[],"default_left":[0,0,0,0,0,0,0,0,0,0,0,0,0],"id":71,"left_children":[1,3,5,7,9,-1,11,-1,-1,-1,-1,-1,-1],"loss_changes":[2.4604313E1,2.1989841E1,4.7213867E1,1.300537E1,1.5159264E0,0E0,2.0989037E1,0E0,0E0,0E0,0E0,0E0,0E0],"parents":[2147483647,0,0,1,1,2,2,3,3,4,4,6,6],"right_children":[2,4,6,8,10,-1,12,-1,-1,-1,-1,-1,-1],"split_conditions":[-1.1805099E0,7.9678184E-1,1.7461832E-1,-9.564719E-1,-8.967698E-1,6.7285135E-2,-7.645825E-1,-1.5064168E-2,7.944024E-3,-1.4232169E-2,-4.143899E-2,-5.383804E-3,1.1509832E-2],"split_indices":[7,6,7,6,30,0,27,0,0,0,0,0,0],"split_type":[0,0,0,0,0,0,0,0,0,0,0,0,0],"sum_hessian":[1.0747157E3,3.0899548E2,7.6572015E2,2.4835289E2,6.0642593E1,2.8190298E1,7.3752985E2,1.4092595E2,1.0742694E2,7.152808E0,5.3489788E1,3.959862E2,3.4154367E2],"tree_param":{"num_deleted":"0","num_feature":"32","num_nodes":"13","size_leaf_vector":"1"}},{"base_weights":[5.413499E-3,8.191052E-2,-3.4119284E-1,2.510915E-2,6.387242E-2,-9.307368E-2,-6.289896E-1,8.83354E-3,-8.098817E-3,9.334059E-3,-9.972466E-3,-3.6380332E-2,1.079332E-2],"categories":[],"categories_nodes":[],"categories_segments":[],"categories_sizes":[],"default_left":[0,0,0,0,0,0,0,0,0,0,0,0,0],"id":72,"left_children":[1,3,5,7,-1,9,11,-1,-1,-1,-1,-1,-1],"loss_changes":[2.8590998E1,5.9951508E1,1.386338E1,2.3967617E1,0E0,3.187907E0,7.6631775E0,0E0,0E0,0E0,0E0,0E0,0E0],"parents":[2147483647,0,0,1,1,2,2,3,3,5,5,6,6],"right_children":[2,4,6,8,-1,10,12,-1,-1,-1,-1,-1,-1],"split_conditions":[1.3392668E0,4.4457352E-1,-9.0406764E-1,9.5823534E-2,6.387242E-2,-1.0008032E0,-4.3181723E-1,8.83354E-3,-8.098817E-3,9.334059E-3,-9.972466E-3,-3.6380332E-2,1.079332E-2],"split_indices":[16,16,30,9,0,30,1,0,0,0,0,0,0],"split_type":[0,0,0,0,0,0,0,0,0,0,0,0,0],"sum_hessian":[1.0762675E3,8.823041E2,1.9396338E2,8.432608E2,3.904328E1,1.04872604E2,8.9090775E1,4.658899E2,3.773709E2,2.8683527E1,7.618908E1,7.990279E1,9.187993E0],"tree_param":{"num_deleted":"0","num_feature":"32","num_nodes":"13","size_leaf_vector":"1"}},{"base_weights":[1.1012004E-2,7.790734E-2,-2.9302946E-1,2.268198E-2,6.2207397E-2,2.0910056E-1,-4.8593947E-1,-8.929626E-3,7.525538E-3,4.458453E-3,6.059113E-2,-1.6565865E-2,-3.7044358E-2],"categories":[],"categories_nodes":[],"categories_segments":[],"categories_sizes":[],"default_left":[0,0,0,0,0,0,0,0,0,0,0,0,0],"id":73,"left_children":[1,3,5,7,-1,9,11,-1,-1,-1,-1,-1,-1],"loss_changes":[2.1690428E1,5.62622E1,1.873207E1,2.1523079E1,0E0,6.3956733E0,5.243885E0,0E0,0E0,0E0,0E0,0E0,0E0],"parents":[2147483647,0,0,1,1,2,2,3,3,5,5,6,6],"right_children":[2,4,6,8,-1,10,12,-1,-1,-1,-1,-1,-1],"split_conditions":[1.3392668E0,4.4457352E-1,-1.2436585E0,-9.564719E-1,6.2207397E-2,-1.2792056E0,-5.931275E-1,-8.929626E-3,7.525538E-3,4.458453E-3,6.059113E-2,-1.6565865E-2,-3.7044358E-2],"split_indices":[16,16,4,6,0,4,4,0,0,0,0,0,0],"split_type":[0,0,0,0,0,0,0,0,0,0,0,0,0],"sum_hessian":[1.0643251E3,8.729926E2,1.9133247E2,8.344959E2,3.8496704E1,5.3081493E1,1.3825098E2,3.239768E2,5.105191E2,4.838347E1,4.6980224E0,8.748942E1,5.0761555E1],"tree_param":{"num_deleted":"0","num_feature":"32","num_nodes":"13","size_leaf_vector":"1"}},{"base_weights":[-3.9443625E-3,-2.2590236E-1,8.668923E-2,1.3121977E-1,-4.1009456E-1,6.648772E-2,4.243209E-2,1.6927285E-2,-2.8576015E-2,-4.2937933E-3,-2.777408E-2,-6.086749E-3,1.1511189E-2],"categories":[],"categories_nodes":[],"categories_segments":[],"categories_sizes":[],"default_left":[0,0,0,0,0,0,0,0,0,0,0,0,0],"id":74,"left_children":[1,3,5,7,9,-1,11,-1,-1,-1,-1,-1,-1],"loss_changes":[2.1606356E1,2.0537804E1,4.190113E1,1.5742056E1,9.647781E0,0E0,2.2763847E1,0E0,0E0,0E0,0E0,0E0,0E0],"parents":[2147483647,0,0,1,1,2,2,3,3,4,4,6,6],"right_children":[2,4,6,8,10,-1,12,-1,-1,-1,-1,-1,-1],"split_conditions":[-1.1805099E0,3.2957345E-1,1.7461832E-1,1.4003582E0,-1.1208204E0,6.648772E-2,-7.645825E-1,1.6927285E-2,-2.8576015E-2,-4.2937933E-3,-2.777408E-2,-6.086749E-3,1.1511189E-2],"split_indices":[7,5,7,11,4,0,27,0,0,0,0,0,0],"split_type":[0,0,0,0,0,0,0,0,0,0,0,0,0],"sum_hessian":[1.0720691E3,3.1040567E2,7.6166345E2,1.0571912E2,2.0468655E2,2.5186815E1,7.364766E2,8.2034996E1,2.3684124E1,6.386215E1,1.408244E2,3.9314337E2,3.4333325E2],"tree_param":{"num_deleted":"0","num_feature":"32","num_nodes":"13","size_leaf_vector":"1"}},{"base_weights":[1.28928935E-2,8.5342884E-2,-2.7530855E-1,2.8651588E-2,1.4837931E0,-6.116487E-1,-1.5606028E-1,3.938655E-3,-2.6496321E-2,6.440828E-2,9.425566E-2,1.1527551E-2,-4.0009197E-2,3.802551E-2,-1.01616215E-2],"categories":[],"categories_nodes":[],"categories_segments":[],"categories_sizes":[],"default_left":[0,0,0,0,0,0,0,0,0,0,0,0,0,0,0],"id":75,"left_children":[1,3,5,7,9,11,13,-1,-1,-1,-1,-1,-1,-1,-1],"loss_changes":[2.2394236E1,6.789424E1,8.546354E0,2.3126677E1,1.9116211E-1,9.084993E0,7.090119E0,0E0,0E0,0E0,0E0,0E0,0E0,0E0,0E0],"parents":[2147483647,0,0,1,1,2,2,3,3,4,4,5,5,6,6],"right_children":[2,4,6,8,10,12,14,-1,-1,-1,-1,-1,-1,-1,-1],"split_conditions":[1.5182487E0,-6.167592E-1,-6.336448E-1,1.4670398E0,3.6522365E-1,-9.9305826E-1,-7.162756E-1,3.938655E-3,-2.6496321E-2,6.440828E-2,9.425566E-2,1.1527551E-2,-4.0009197E-2,3.802551E-2,-1.01616215E-2],"split_indices":[3,3,17,19,14,18,20,0,0,0,0,0,0,0,0],"split_type":[0,0,0,0,0,0,0,0,0,0,0,0,0,0,0],"sum_hessian":[1.0703857E3,8.5592224E2,2.1446352E2,8.235569E2,3.23654E1,5.505409E1,1.5940944E2,7.5653186E2,6.702504E1,2.4589035E1,7.776363E0,1.0029366E1,4.5024723E1,7.0624113E0,1.5234702E2],"tree_param":{"num_deleted":"0","num_feature":"32","num_nodes":"15","size_leaf_vector":"1"}},{"base_weights":[1.0515659E-2,5.532349E-2,-3.8613522E-1,-1.7942691E-2,4.003825E-1,-7.58938E-1,-9.02976E-2,1.0591437E-2,-7.0813573E-3,1.7448189E-2,6.854103E-2,-2.7868077E-2,-5.1182028E-2,7.323404E-2,-1.3122699E-2],"categories":[],"categories_nodes":[],"categories_segments":[],"categories_sizes":[],"default_left":[0,0,0,0,0,0,0,0,0,0,0,0,0,0,0],"id":76,"left_children":[1,3,5,7,9,11,13,-1,-1,-1,-1,-1,-1,-1,-1],"loss_changes":[1.8918676E1,2.4181293E1,1.1847683E1,2.2472475E1,7.8804245E0,1.9729843E0,1.6814743E1,0E0,0E0,0E0,0E0,0E0,0E0,0E0,0E0],"parents":[2147483647,0,0,1,1,2,2,3,3,4,4,5,5,6,6],"right_children":[2,4,6,8,10,12,14,-1,-1,-1,-1,-1,-1,-1,-1],"split_conditions":[1.4670398E0,1.0251074E0,-1.0218596E0,-1.0798744E0,1.1381842E0,2.0243495E0,8.3659965E-1,1.0591437E-2,-7.0813573E-3,1.7448189E-2,6.854103E-2,-2.7868077E-2,-5.1182028E-2,7.323404E-2,-1.3122699E-2],"split_indices":[19,17,0,4,19,30,0,0,0,0,0,0,0,0,0],"split_type":[0,0,0,0,0,0,0,0,0,0,0,0,0,0,0],"sum_hessian":[1.0622559E3,9.5521063E2,1.0704524E2,7.886954E2,1.6651524E2,4.6669193E1,6.0376045E1,2.75738E2,5.129574E2,1.5942757E2,7.0876856E0,2.8256721E1,1.8412472E1,5.2697673E0,5.5106277E1],"tree_param":{"num_deleted":"0","num_feature":"32","num_nodes":"15","size_leaf_vector":"1"}},{"base_weights":[1.1761194E-2,-2.156321E-1,1.0743235E-1,-1.5441178E-1,-8.100005E-1,6.568631E-2,4.1841175E-2,-5.070732E-2,-5.1602176E-3,-1.2026664E-2,-4.3041196E-2,5.9892004E-3,-1.5127531E-2],"categories":[],"categories_nodes":[],"categories_segments":[],"categories_sizes":[],"default_left":[0,0,0,0,0,0,0,0,0,0,0,0,0],"id":77,"left_children":[1,3,5,7,9,-1,11,-1,-1,-1,-1,-1,-1],"loss_changes":[2.3289503E1,1.1411271E1,5.9558067E1,1.2604044E1,6.429939E-1,0E0,1.9245218E1,0E0,0E0,0E0,0E0,0E0,0E0],"parents":[2147483647,0,0,1,1,2,2,3,3,4,4,6,6],"right_children":[2,4,6,8,10,-1,12,-1,-1,-1,-1,-1,-1],"split_conditions":[-1.1892031E0,1.3423877E0,8.1738293E-1,-1.5029984E0,-1.4978154E0,6.568631E-2,1.5157635E0,-5.070732E-2,-5.1602176E-3,-1.2026664E-2,-4.3041196E-2,5.9892004E-3,-1.5127531E-2],"split_indices":[15,14,15,17,17,0,3,0,0,0,0,0,0],"split_type":[0,0,0,0,0,0,0,0,0,0,0,0,0],"sum_hessian":[1.0684718E3,3.160421E2,7.524297E2,2.8767157E2,2.837056E1,3.782151E1,7.146082E2,1.5114004E1,2.7255756E2,2.7942452E0,2.5576315E1,5.8325745E2,1.3135077E2],"tree_param":{"num_deleted":"0","num_feature":"32","num_nodes":"13","size_leaf_vector":"1"}},{"base_weights":[-4.5266683E-4,7.284521E-2,-3.030766E-1,4.057242E-2,7.8751646E-2,-8.219442E-1,-1.4285505E-1,-5.326414E-3,8.821263E-3,-6.109764E-2,-2.1786971E-2,-2.3237487E-2,6.9750967E-3],"categories":[],"categories_nodes":[],"categories_segments":[],"categories_sizes":[],"default_left":[0,0,0,0,0,0,0,0,0,0,0,0,0],"id":78,"left_children":[1,3,5,7,-1,9,11,-1,-1,-1,-1,-1,-1],"loss_changes":[2.3246643E1,4.083716E1,1.6870348E1,1.6544695E1,0E0,6.883053E0,1.4365449E1,0E0,0E0,0E0,0E0,0E0,0E0],"parents":[2147483647,0,0,1,1,2,2,3,3,5,5,6,6],"right_children":[2,4,6,8,-1,10,12,-1,-1,-1,-1,-1,-1],"split_conditions":[9.4809073E-1,5.0699675E-1,-1.0842813E0,-3.882032E-1,7.8751646E-2,-7.794755E-1,-1.0218596E0,-5.326414E-3,8.821263E-3,-6.109764E-2,-2.1786971E-2,-2.3237487E-2,6.9750967E-3],"split_indices":[19,19,12,29,0,14,0,0,0,0,0,0,0],"split_type":[0,0,0,0,0,0,0,0,0,0,0,0,0],"sum_hessian":[1.046015E3,8.426725E2,2.0334256E2,8.259548E2,1.6717691E1,4.7001396E1,1.5634117E2,3.966645E2,4.2929028E2,2.2025084E1,2.4976313E1,7.275384E1,8.3587326E1],"tree_param":{"num_deleted":"0","num_feature":"32","num_nodes":"13","size_leaf_vector":"1"}},{"base_weights":[-1.2401716E-2,-2.313843E-1,7.6976694E-2,-1.1544054E-1,-5.7580703E-1,6.5977685E-2,3.130803E-2,-1.0613452E-2,1.0592064E-2,-4.7366116E-2,-1.1660283E-2,-7.229056E-3,8.7089455E-3],"categories":[],"categories_nodes":[],"categories_segments":[],"categories_sizes":[],"default_left":[0,0,0,0,0,0,0,0,0,0,0,0,0],"id":79,"left_children":[1,3,5,7,9,-1,11,-1,-1,-1,-1,-1,-1],"loss_changes":[2.0663221E1,1.2152884E1,4.2509506E1,7.339349E0,9.556019E0,0E0,1.8225893E1,0E0,0E0,0E0,0E0,0E0,0E0],"parents":[2147483647,0,0,1,1,2,2,3,3,4,4,6,6],"right_children":[2,4,6,8,10,-1,12,-1,-1,-1,-1,-1,-1],"split_conditions":[-1.1805099E0,-1.4173236E-1,1.7461832E-1,-1.101479E0,-5.822518E-1,6.5977685E-2,-1.0061735E0,-1.0613452E-2,1.0592064E-2,-4.7366116E-2,-1.1660283E-2,-7.229056E-3,8.7089455E-3],"split_indices":[7,17,7,13,31,0,22,0,0,0,0,0,0],"split_type":[0,0,0,0,0,0,0,0,0,0,0,0,0],"sum_hessian":[1.0538273E3,3.0499124E2,7.4883606E2,2.291778E2,7.581344E1,2.5557594E1,7.232785E2,1.7712546E2,5.2052326E1,3.5525105E1,4.0288334E1,3.24174E2,3.9910446E2],"tree_param":{"num_deleted":"0","num_feature":"32","num_nodes":"13","size_leaf_vector":"1"}},{"base_weights":[-2.5427695E-3,-3.1183332E-1,5.679668E-2,1.8749299E-2,-4.786258E-1,1.5919598E0,-3.866386E-3,-7.940832E-3,5.0502893E-2,-2.9270688E-2,6.265012E-3,6.867859E-2,1.080179E-1,-1.9269524E-2,3.91883E-3],"categories":[],"categories_nodes":[],"categories_segments":[],"categories_sizes":[],"default_left":[0,0,0,0,0,0,0,0,0,0,0,0,0,0,0],"id":80,"left_children":[1,3,5,7,9,11,13,-1,-1,-1,-1,-1,-1,-1,-1],"loss_changes":[1.9265894E1,9.326166E0,8.203219E1,1.0304264E1,7.318987E0,1.1890717E0,2.66481E1,0E0,0E0,0E0,0E0,0E0,0E0,0E0,0E0],"parents":[2147483647,0,0,1,1,2,2,3,3,4,4,5,5,6,6],"right_children":[2,4,6,8,10,12,14,-1,-1,-1,-1,-1,-1,-1,-1],"split_conditions":[-1.3762013E0,-4.5937836E-1,-5.342103E-1,5.063955E-1,1.3614532E0,3.7290835E-1,-5.204464E-1,-7.940832E-3,5.0502893E-2,-2.9270688E-2,6.265012E-3,6.867859E-2,1.080179E-1,-1.9269524E-2,3.91883E-3],"split_indices":[16,30,16,17,17,14,16,0,0,0,0,0,0,0,0],"split_type":[0,0,0,0,0,0,0,0,0,0,0,0,0,0,0],"sum_hessian":[1.0477684E3,1.6797739E2,8.79791E2,5.6628105E1,1.1134929E2,3.2484444E1,8.473066E2,4.873784E1,7.8902664E0,9.464461E1,1.6704678E1,2.5935974E1,6.548469E0,1.49605E2,6.9770154E2],"tree_param":{"num_deleted":"0","num_feature":"32","num_nodes":"15","size_leaf_vector":"1"}},{"base_weights":[3.956111E-3,4.2715606E-1,-5.772205E-2,2.599042E-1,6.1074745E-2,1.577004E-2,-4.951083E-1,-3.355112E-3,2.0800091E-2,